4
784 30 30 10 
-0.997497
0.127171
-0.613392
0.617481
0.170019
-0.0402539
-0.299417
0.791925
0.64568
0.49321
-0.651784
0.717887
0.421003
0.0270699
-0.39201
-0.970031
-0.817194
-0.271096
-0.705374
-0.668203
0.97705
-0.108615
-0.761834
-0.990661
-0.982177
-0.24424
0.0633259
0.142369
0.203528
0.214331
-0.666245
0.346355
-0.0958697
-0.285507
-0.886294
0.168352
0.566939
0.418009
0.100164
-0.399816
0.752339
0.473244
0.921061
0.832122
0.039353
-0.609078
-0.0686846
-0.482145
0.786476
-0.633944
0.593573
0.671962
1.09759
0.983795
0.187904
-0.222886
-0.465766
-0.415778
0.66065
-0.949433
-0.243988
-0.797373
0.351659
-0.899971
-0.987252
0.879215
-0.427458
-0.771165
0.228822
0.398572
0.729688
0.485241
-0.00427231
-0.616784
0.492261
0.0350813
-0.0443207
0.943617
0.477496
-0.917174
0.109654
-0.333767
0.548117
0.206288
0.116745
-0.290649
-0.693805
-0.570426
-0.286804
0.604968
0.0517991
1.16816
0.496966
-0.305172
-0.662358
0.304648
0.0320344
-1.05815
0.486231
-0.0296005
-0.69055
0.89473
-0.708014
0.506264
0.40811
-0.289516
-0.150609
-1.03162
0.895094
0.115496
-0.730799
0.630509
0.713844
0.177827
-0.711483
-0.481508
0.597773
-0.0698525
-0.880425
0.0196911
0.505196
0.201324
-0.513878
0.0855338
0.322386
0.37851
0.484834
-0.0771373
-0.671719
-0.314012
0.688131
-0.892835
-0.0382544
0.134484
0.0515253
-0.628904
0.957763
0.553453
-0.405384
-1.0068
-0.257814
-0.757289
0.656137
-0.305659
-0.275183
-0.219489
0.917921
-0.47131
0.17673
0.17961
-0.73214
1.28221
0.690943
-0.260343
-0.0498992
0.691962
-0.781148
0.145298
0.194806
-0.906479
0.284344
-0.388085
0.568119
-0.308151
0.544317
-0.249091
0.669879
-1.15243
-1.54692
-0.630273
-0.60487
0.16316
-0.585189
-0.230798
-1.02649
0.591967
0.770583
0.423229
-0.0701834
0.445988
-0.593742
0.0409145
-0.958245
-0.792414
0.474125
1.03253
-0.534595
-0.751147
0.517706
-0.772982
-0.30411
0.339556
0.460494
0.0311109
0.383813
-0.276916
-0.325822
-1.24957
-0.343366
-1.48619
-0.545976
-1.51807
-0.0519849
0.216892
-0.400848
-0.628281
0.024773
0.885193
-0.0144372
0.695764
-0.90716
0.0863667
-0.563852
0.97226
-0.262085
1.38499
-0.906877
0.207752
-0.861077
0.15023
1.42282
-0.402542
0.595722
-0.628449
-0.1079
0.9976
-0.774374
-1.5015
-0.709691
-0.819113
-0.765547
-0.914783
0.0893492
0.511117
0.104675
0.450979
0.286755
0.20254
-0.283375
-0.633109
-0.584746
0.856746
0.161312
0.903446
-0.686437
-0.337697
0.128825
0.0996211
-0.330104
0.157764
0.780704
-0.323752
0.20481
0.0401419
0.431701
1.09
-0.0742981
-1.56292
0.0237302
-0.340989
-0.00364161
-0.693752
0.206681
-0.163327
-0.194318
0.491992
-0.858148
-0.563256
-1.02286
-1.21645
-0.702062
0.717329
0.648488
0.520115
-0.820979
-0.00220735
-0.846772
-0.227848
-0.295639
1.0109
0.643879
0.318824
-0.738364
-0.093721
0.00750339
0.780893
-0.938078
-1.2051
0.400191
-0.930981
-0.328058
-0.0985193
0.288233
1.11047
-0.310277
0.283591
-1.49063
-1.66984
-0.519219
-0.266007
0.273601
1.02454
-0.987689
0.738138
0.37654
0.718691
-1.09983
-0.37632
-0.391511
0.053334
1.45883
0.485657
-0.731367
-1.09732
-0.00531004
0.40796
0.403947
-0.782418
-0.101881
-0.915103
-0.311148
-0.689993
-0.22515
0.397763
-1.03126
0.113572
-1.57438
-0.707554
0.0462174
-0.108398
0.589231
0.0432484
-0.533808
0.851653
0.179738
0.913663
0.650614
-0.109975
-0.469069
0.421565
0.275562
0.958761
-0.16054
-0.736567
-0.744829
0.300068
-0.222251
-0.431166
-1.11112
0.437279
-0.0779949
-0.635967
0.290244
0.880431
-1.25965
-0.781833
-0.323663
-0.539664
-0.804416
-1.0332
-0.923318
0.930196
-0.613568
-0.0480617
-0.1342
0.707272
0.4977
0.359967
0.440107
0.948808
1.76538
1.72121
-1.30632
-1.43798
0.254187
0.111648
-0.403728
-0.168714
-1.32811
-1.02825
-0.538985
-1.26598
-0.199766
0.494358
-0.830742
-0.463406
-0.618691
-1.31234
-0.352632
0.23963
0.437023
0.916073
0.132242
0.513033
-0.187577
0.866873
-0.519082
1.02336
0.233667
0.237383
1.21153
1.7603
-0.509251
-1.74087
0.332487
0.101158
-0.930952
-0.294486
0.558426
-1.32857
-0.850899
-1.34285
0.552382
0.790953
-0.960507
-1.36684
-1.2238
0.119962
0.259066
-0.326585
0.549051
0.361374
-0.00857111
0.755165
0.397875
-0.410735
-0.843925
-0.410802
0.218105
1.70363
0.931442
0.173983
0.0575568
-0.239081
0.410245
0.888935
0.0440067
0.680801
-1.04379
0.0236914
-0.346265
-1.02567
0.0813654
-0.0488388
-0.771387
-0.224232
-2.11274
-0.436728
-1.30014
0.157345
0.426799
-0.943233
0.27264
0.756529
0.0312183
0.663226
-0.12611
0.0379433
-0.75206
1.10732
1.51921
0.930764
-1.14202
-0.382028
0.676302
0.568024
-0.872035
-0.0297975
1.01997
-1.3459
-0.429328
-1.64619
0.909522
1.26037
-0.476988
0.941218
-1.14195
-0.46312
-0.676173
-0.620478
-0.680177
0.114301
0.103667
-0.574746
0.407588
-0.135245
-0.809856
0.308616
-0.271072
1.5479
1.30541
0.721234
-1.14141
-1.16718
-0.474479
0.905075
-1.24556
0.542257
-1.08
0.0733148
-0.429622
-1.14035
-0.558242
0.352471
-1.17567
-0.892682
0.980315
0.0944536
-0.841487
0.506971
0.310083
0.420984
0.305402
0.274896
0.486785
0.0536563
-0.218503
-0.281877
0.601293
0.638119
1.7399
0.624068
-1.43118
-1.09245
-0.164449
-0.18924
-0.411095
0.103271
0.176627
-1.16596
-0.254131
-0.804755
0.33426
-0.29562
-1.63596
-1.84002
-0.0370358
-0.163409
-0.312368
-0.0231061
0.179316
0.218875
-0.632544
1.16502
-0.125319
-0.51495
0.842092
0.230963
-0.044993
1.59858
0.2865
0.763918
-0.415634
-0.396933
0.80464
0.652714
-1.03097
-0.0138882
-0.540469
-0.19649
1.28236
-0.605868
0.407289
1.00106
0.303065
-0.710036
-0.0221076
-0.743453
-0.812281
-0.142251
-0.161285
0.291452
0.176017
0.619244
0.708481
-0.214382
-0.445129
-0.735967
0.528484
1.44751
0.716768
-0.493341
-1.22315
0.548794
-0.0923599
0.272464
-0.111129
0.687219
0.275032
-0.935105
-0.0108624
-1.91118
-0.112098
-0.161412
-0.112631
-0.468433
-1.08094
-0.384637
-1.15175
-0.137585
0.424692
-0.403597
0.300329
0.399766
0.134576
0.128233
-0.525403
0.446208
-0.758275
1.5279
0.640204
0.596756
0.0433687
-0.225683
0.150477
0.154204
-0.294857
-0.14067
-0.0423066
0.17244
-0.26499
-1.28167
-0.278622
1.09009
0.304318
-0.806206
0.20885
-0.73203
-0.397793
-0.888724
0.377551
0.749557
-0.497787
-0.176397
0.37215
1.45932
0.438506
1.05973
-0.495938
0.961264
1.94282
-0.727018
-1.06615
-0.298131
-0.951258
-0.277615
-0.684925
-0.278623
-0.332822
-0.505383
0.133677
0.330044
0.0713964
0.948455
-0.0935421
-0.000635273
0.720782
0.139722
-0.455997
-0.53576
0.486306
0.282396
0.0967568
0.383491
-0.155144
1.27258
0.14794
0.221451
-0.503986
0.0671455
0.975233
-0.818293
0.0211021
0.275989
0.933306
-0.70255
0.257254
0.279808
0.195837
-0.948239
0.391191
0.445794
0.666904
1.34694
-0.900367
0.265182
0.914927
0.642477
-0.781674
1.2592
0.105609
-0.499801
0.287975
0.0529597
-0.50651
1.37175
0.0698849
0.26839
0.829066
0.702133
0.0035815
0.604412
-0.0780674
-1.28026
-0.160326
0.450118
-0.147868
0.454518
-0.365232
0.441816
0.592668
-1.09828
-0.0924223
1.45539
-0.677532
-1.22847
-0.164233
0.0779947
-0.367409
0.256342
-0.216404
0.238814
-0.222031
0.663214
-0.523212
-0.727539
0.56803
0.502997
-0.695723
0.945662
-0.273105
-0.955506
-1.21084
-1.53762
0.943288
-0.0816914
-0.294245
-0.00499946
0.0676104
0.76296
0.417498
-0.664805
0.255746
1.73492
-0.440532
-0.252297
-0.556623
-0.677174
-0.475804
-0.268944
0.815116
-0.0855351
-0.468184
0.100568
0.0502987
0.383132
0.547396
0.358413
-0.0345578
0.770979
0.424165
0.222628
0.301936
0.4569
1.05659
0.802709
0.796502
0.391404
0.600396
-1.05307
-0.287627
0.322659
-0.0118019
0.168765
-0.68983
0.0888085
0.66019
-1.4291
-0.673198
-0.823498
0.465631
0.503886
-0.313357
-0.590501
-1.16661
-0.313563
-1.00648
0.743626
0.425487
-0.410449
1.03538
-0.426052
0.0410798
-0.604397
-0.452368
0.216577
0.0934582
0.811467
-0.376021
0.370667
-0.77733
-0.0551499
0.369123
1.50251
0.14126
-0.862455
-0.599527
-0.0670288
-0.361517
-0.414838
0.304562
-0.980361
1.15271
0.399332
-0.857254
0.288329
0.38709
0.799316
0.497899
0.652295
0.161585
0.371501
0.142004
-0.0758633
-0.189989
0.0522651
-0.088524
0.317452
-0.174698
-0.0509073
-0.00929359
0.309661
0.0150422
1.06637
0.32246
-0.34773
0.69914
0.136355
0.699188
-0.689248
0.351036
0.785721
0.139576
0.574532
-0.250729
0.717009
-0.108415
0.686895
0.786888
-0.477127
-0.35561
-0.691084
-0.0729648
1.11081
0.121982
-0.544508
0.347422
-0.925915
0.455437
0.409917
-0.132987
-1.52919
0.706384
-0.414961
0.862812
-1.07579
-0.518181
-0.519298
-1.10161
-0.820977
0.344233
-0.102488
-0.122445
-0.487109
0.359794
-0.71716
-0.0231632
-0.0852656
0.636997
-0.132664
-0.949159
-0.289153
-0.442051
-0.699455
0.657542
0.528511
0.838516
0.283977
0.317943
-0.12428
0.432257
0.395787
1.01476
-0.0958203
-0.315592
-0.690911
0.761575
0.592944
-0.146651
-0.784917
0.654394
0.750568
-0.864696
-0.0902664
0.873348
-0.755802
-0.669202
-0.695184
-0.633734
0.198764
-0.694236
0.279929
0.0660564
0.428331
0.417366
0.895184
0.452822
-0.330436
0.58945
-0.22919
0.835418
0.404816
-0.575738
-0.703139
-0.249553
-0.52758
0.208771
-0.671824
0.741686
-0.616452
-0.297116
0.141916
-0.699024
-0.529301
-0.906945
0.459211
0.554676
0.819266
-0.912412
-0.120713
-0.0815876
0.636128
-0.16672
0.0486896
0.560901
-0.469132
0.302341
-1.07865
0.666925
0.707625
0.559036
-1.07753
-0.0730958
0.266309
0.352505
0.816876
-0.508807
0.789452
0.536651
-0.540402
0.0136648
-0.191761
0.166341
0.675117
0.34909
-1.20183
0.526676
-0.089255
0.88077
0.799647
0.781749
-0.147039
-0.356573
0.130963
-0.757817
0.3155
-0.613564
0.389938
0.143539
-1.35108
-0.708186
-1.13054
0.0845335
-1.02872
-0.625715
0.59157
0.534727
-0.0721752
1.18943
0.297649
-0.383832
0.779383
1.00735
-0.756373
-0.850592
-0.75436
-0.874759
0.845294
-0.426744
-0.166878
0.923179
-0.354714
0.456376
-0.216802
0.829465
-0.341092
-0.233565
-0.779741
-1.36103
-0.492588
0.828484
0.126987
0.240243
0.24759
-1.53134
-0.316584
-0.808929
-0.264852
0.0323853
-0.671123
0.866373
0.688548
0.320355
0.881267
-0.122757
0.578578
0.875345
0.0652438
0.621872
0.8308
-0.0887261
0.465486
-0.578895
-0.352116
0.936929
0.537984
0.205992
-1.16056
-0.669718
-0.0286036
0.683209
0.186189
-0.8301
0.346816
-1.10918
0.550498
0.441147
0.753324
-0.506767
0.189753
-0.036274
-0.885998
-0.471584
-0.0498536
-0.966655
1.03246
-0.00913165
-0.728861
0.45591
1.20732
0.134849
-0.240299
0.17781
-0.220484
0.128455
0.563829
-0.0851193
-0.451119
-0.585307
0.848958
0.801528
-0.68131
-0.525603
0.861647
-0.938305
-0.418992
-1.22061
-0.0218021
-0.183572
-1.31993
-0.258974
1.13142
-0.64996
1.01228
-1.02418
0.930265
0.670793
0.012894
-0.123278
0.686254
0.961217
0.836877
-0.352028
-0.68892
0.686815
-0.755814
-0.799518
-0.592498
-0.114889
-0.942194
0.589298
-0.640601
0.368041
0.490701
-0.0464406
0.297223
-0.441356
-0.622946
-1.2579
-1.54527
0.607584
0.0118143
0.466033
-0.231801
0.298333
-0.799214
0.110445
-0.551764
0.589169
1.31809
0.544363
0.609984
-0.340427
1.14127
0.133255
-0.295717
-0.718476
0.400029
-1.04999
-0.469893
-0.690065
-1.47392
-0.512687
0.309923
-0.601715
-0.674774
-0.853953
-0.936471
-0.045475
0.624688
0.0232788
1.86371
-0.64413
0.393495
-1.05986
1.47281
0.740463
1.2007
0.886797
0.290659
1.06265
-0.116103
-0.116202
-0.465275
-0.289342
-0.326491
1.10795
0.420423
-0.329625
0.376097
0.0566124
-1.0476
-0.611717
-0.0975618
-1.12317
-0.978059
0.863396
-0.899493
0.0104587
0.931194
0.0147133
0.0752991
-0.51129
0.628116
0.601256
-0.046246
-0.199849
-0.326504
0.0256873
0.193694
0.900744
-0.194322
0.731243
0.481076
-1.03365
0.93332
-0.786793
-0.483224
-1.1464
-1.1508
-0.618894
-0.930891
-0.215323
0.758194
-1.63382
-1.159
-0.671023
-0.569511
0.179459
0.178492
-0.51307
1.2078
-0.123095
0.0908177
-0.152987
0.353727
1.04945
0.344085
-0.291384
1.32318
2.32534
0.0643659
0.315842
-0.742052
0.702182
-0.320828
1.26647
-0.669632
-0.727643
0.96655
-0.424207
-0.639811
-1.03972
-0.810933
-0.574493
0.0904848
-0.800134
-1.53415
-0.796377
0.594979
0.295746
0.804751
0.410959
-0.46745
0.132759
1.09689
0.752952
-0.403724
-0.629166
0.00523871
0.872726
-0.784091
-0.250228
1.16197
-0.548404
-0.893981
0.0448929
-0.514441
0.630213
-0.330412
-1.72742
0.538604
0.0626717
1.02086
-0.596615
-0.982745
-0.943003
-1.35239
-0.182505
0.34235
-0.74491
0.101741
-0.00235178
0.265059
-0.583587
0.427156
0.784653
0.688642
-0.737366
0.162065
1.58681
1.2547
0.949133
0.342991
0.647962
0.735804
-0.910582
-0.0896676
-0.619344
-0.885053
-0.935162
0.409495
1.17905
-0.00127227
-0.363876
-1.53351
-0.706179
-1.17757
0.484275
0.0734465
-0.225386
-0.0844631
-0.287009
1.29706
0.4525
-0.79108
0.812531
0.338102
0.159615
0.434911
1.64608
0.723073
-0.094091
0.96731
0.228284
-0.24654
-0.261413
-0.330484
-0.300018
-0.749663
0.719301
0.569036
0.168805
0.351628
0.216039
-1.32882
0.370531
-1.00056
0.724027
1.01145
0.0177404
-0.641545
-0.600485
-0.470951
-0.178446
0.405426
0.192655
-0.145206
0.166619
2.06247
1.16773
0.570513
0.636911
0.438093
-0.46699
-0.490115
0.103282
-0.465643
-0.201888
-0.470459
-0.674879
-0.346929
-0.883773
-0.261867
0.236985
-1.69037
0.594124
-0.542263
-0.244478
0.802696
1.03321
-0.785941
-0.374078
-0.459984
-1.42954
0.836734
-0.0327485
-0.50835
-0.0474927
1.03147
1.54335
0.0727448
-0.72621
-0.29826
0.149448
-0.29232
-0.0826232
-0.60476
-0.480872
0.360335
-0.284145
0.082757
-0.731599
-0.337812
0.0146153
-0.644289
0.804617
-0.256656
0.207897
-0.597245
0.783423
0.604051
0.807614
0.028906
0.355409
0.733439
-0.184178
1.40046
-0.262914
-0.110742
0.705982
-0.732115
0.621676
-0.0555086
0.493404
0.461063
-0.648909
0.28219
-0.681611
-0.855514
0.158667
-0.541867
-0.152956
-0.293553
0.0612367
-1.32117
0.752172
-0.335313
0.342003
0.987785
-0.463071
-0.582459
-0.388364
-0.591822
0.015098
-0.218832
-0.458784
0.744801
-0.106457
1.22941
1.38978
0.489669
-0.881159
0.207277
0.226963
0.694752
-0.614336
-0.619215
0.728565
0.42281
0.809225
-0.838239
0.392613
0.111206
0.211455
-1.38664
-0.514453
0.136238
-0.41672
0.492534
-0.631551
-0.194277
-0.760696
0.933424
-0.601183
-0.19144
-0.572711
-0.259687
0.445363
1.60745
0.0877935
0.112256
-0.756376
0.913552
-0.809736
-0.663262
0.391257
0.00843753
-0.0153365
0.150698
0.0744419
-0.326209
0.440787
1.03243
1.34169
-0.416047
-0.950683
-0.205616
-1.2251
-0.297983
-0.0805149
0.754284
0.313319
-0.142978
-0.282803
0.555875
0.268158
-0.148218
-0.534685
0.0606958
0.988627
-1.01363
0.117998
0.0257048
0.984959
-0.869687
-0.632488
-0.524911
-0.96606
0.558944
-0.383544
-0.706894
-0.572225
-0.709872
0.183277
0.66234
-0.050507
-0.419957
0.0457217
0.110121
-0.157748
0.188592
0.688553
-0.43307
-0.411221
0.777152
-0.690266
-0.373105
0.216135
0.867628
0.342412
-0.74501
0.283782
-0.412992
-0.383741
0.653485
0.123694
-0.115794
0.0199479
-1.08977
-0.115026
-0.493242
-1.55259
-0.910915
0.452373
-1.20342
0.666558
0.0645633
0.251601
-0.350261
-0.53587
-0.408799
0.301147
0.366312
0.285659
1.08857
0.38101
0.642743
-0.185187
0.544713
1.07003
-0.427135
-0.0391132
1.1346
0.460537
0.360407
-0.0357346
-0.552029
-0.325061
-0.0350296
0.205355
-0.00492099
0.0707577
-0.854931
-0.987691
-1.00588
-0.390921
0.0729717
-0.62777
-0.506458
-0.982293
-0.246596
-0.268476
0.124423
1.23866
0.907231
-0.046674
1.28674
-0.152284
0.1315
0.204732
1.06123
-0.624563
0.365928
-0.447283
-0.289296
0.107139
-0.726794
0.847059
-0.103219
-0.311964
-0.669431
-0.886755
0.517025
0.517149
-0.435424
0.71652
-0.274235
0.351299
0.080668
-0.774995
0.634519
-0.391706
-0.528076
0.129237
-0.0228428
0.195878
-0.843543
-0.0627076
1.15355
-0.958461
-0.830687
0.211998
-0.285691
1.1964
-0.224454
-0.892571
-0.742152
0.793522
0.00428443
1.19846
0.209655
-0.417668
0.544498
0.982196
-1.09718
1.27026
-0.644566
0.441245
-0.480587
-0.624184
-1.03605
-0.314901
-0.489186
0.659106
0.251051
0.600843
-1.11449
0.796751
0.709724
0.622676
-0.300101
0.121425
0.157625
-0.32213
-0.259363
0.586207
-0.667884
1.10803
-0.243135
1.51023
-0.937806
-0.0932994
0.839129
1.03069
-0.851911
-0.559732
-0.240871
-0.0358959
0.483623
0.175007
0.204916
0.549609
0.451295
0.146379
1.20169
0.209454
-0.189772
-0.0422998
-0.82704
0.399329
-0.266014
-0.110668
0.140052
-1.00871
-0.00129042
-1.25068
1.04336
-0.208534
-0.573991
-0.245558
-0.369247
-0.0296657
0.83072
-1.07807
-0.395534
-0.282625
-0.576006
-0.460765
0.729605
-0.500947
-0.524101
0.89781
0.205833
-0.405281
1.25792
-0.771674
1.06418
-0.878201
-0.462088
-0.560017
-0.130155
0.0590691
0.471669
-1.21663
-0.77181
-0.240768
-0.700642
-0.11789
-0.273382
-0.184244
-0.0872006
-0.0740563
-0.257206
1.38635
0.639463
-0.696162
-0.587305
-0.306365
-0.828234
-0.351227
-0.198775
0.056178
0.768394
0.0443898
-0.867607
0.647495
0.0198679
-0.689777
0.0156694
0.880961
0.470239
-0.187016
0.0528411
0.853526
0.108598
-0.171394
0.681095
0.349348
-0.888239
-0.0168768
-0.854553
-0.396526
-0.0217727
0.521769
-0.203852
0.628403
0.515125
-0.13181
-0.200544
-0.0813159
0.484243
-0.228545
0.377634
0.148931
-0.0719879
0.693679
-0.461465
-0.88001
-0.732999
-0.852009
-0.513506
-0.5765
0.0540039
0.401514
-0.048517
-0.596024
-0.406941
0.691111
0.490112
-0.679822
0.60278
-0.380676
-0.708498
0.132406
-0.837565
0.764047
0.0820901
-0.308291
-0.868389
-0.507448
1.23201
0.242626
-0.665207
-0.957741
0.0226601
0.875429
0.397243
-0.475235
-0.0275659
1.20733
-0.63414
-0.285639
0.241783
-0.25152
-0.262164
0.592265
-1.07619
-0.565128
-0.00405037
0.601864
-0.41503
-0.505471
0.227634
-0.190896
0.357939
-0.26045
0.829955
-0.734462
0.387704
-0.431925
0.120558
-0.567568
-0.741672
0.297689
0.738324
0.0454604
-0.072931
0.420575
0.0792487
0.86071
-0.228322
0.478913
0.304714
0.743965
0.113215
1.54524
-0.830396
0.212177
-0.443944
-0.465076
0.222187
0.572872
-1.16784
0.0412374
-0.19758
-0.652859
0.69486
0.820308
-0.39908
0.547281
-0.134743
-0.73167
0.779726
-0.327766
-0.324861
-0.873361
0.0984085
-0.820964
-0.246213
-0.00460458
0.842763
0.143818
1.6331
0.178734
-0.884318
0.235326
0.774576
-0.582711
-1.05892
-0.481933
-0.825617
-0.62106
0.751935
-1.42512
-0.359482
-0.181463
0.568489
1.0479
-0.548633
0.802043
0.123451
0.282148
-0.677666
-0.00364429
0.885336
-0.821933
-0.0831722
0.167717
0.193725
1.1379
0.910972
-0.0858301
-0.323515
0.174259
-0.024133
-0.483593
0.000263915
0.0947168
-1.8393
-0.762235
-0.178739
0.664941
-0.45696
-0.423073
0.570625
0.148898
-0.219734
0.672366
-0.498541
-0.562311
-0.191027
-0.813644
0.233185
-1.07962
0.908125
0.14445
0.313146
0.98309
0.952615
0.980102
0.0173103
-0.803332
-0.409027
0.430887
1.07101
-0.533578
-0.624722
0.0896927
-0.193279
-0.416585
-0.461944
0.591382
-0.279889
0.45963
-0.899795
0.549361
0.330412
-0.304085
0.470687
0.357268
-0.280705
-0.799074
0.314718
0.104611
-0.0414794
0.00380527
0.657667
-0.568734
0.79698
1.90095
0.309467
0.942273
0.167096
0.412705
0.581478
0.0649167
-0.122068
0.241969
-1.20866
0.113012
-1.00683
-0.0732938
0.293469
-0.137883
-0.274642
0.558592
-1.28645
0.00938892
-0.0477504
0.0629129
-0.413893
0.65258
-0.183589
-0.56515
0.530517
-0.721934
1.01559
-0.865836
-0.250804
1.79501
-1.55865
0.367686
-1.10456
-0.445268
-0.585108
-0.324221
-0.398263
-0.973312
-2.03676
0.253815
0.027497
0.848357
-0.0696292
-0.7567
-0.902416
0.92185
0.448596
-1.11681
0.690676
0.478448
-0.388839
0.791492
0.525873
-0.522193
0.213808
0.271851
1.28139
-0.397421
-0.243893
1.15272
-0.700146
1.4744
0.373915
0.0682169
-0.522936
-0.658526
0.127747
-0.115866
-0.28209
-0.734508
-0.774753
-0.841169
0.925051
-0.213217
-0.860026
-1.23241
0.349325
0.236376
0.84521
0.495905
-0.740926
0.123855
0.796906
0.180471
1.01402
-0.308716
0.218995
0.204461
0.990815
2.46866
0.0885015
-0.417277
0.0344248
0.768222
-0.32247
-0.545996
-0.152895
-0.289765
-0.484309
0.649602
-0.345336
0.821783
0.977193
-0.369937
-1.7626
0.459439
0.745478
0.487373
1.26041
-0.0468246
-0.325987
-0.521359
0.268593
0.246604
0.142486
-0.845819
-0.0502286
1.09195
0.894348
1.56482
1.02584
0.903556
0.207318
-0.0863169
-0.532948
0.147065
0.0433178
-0.0675939
-1.8074
-0.173194
0.0184888
0.759539
0.0977957
-0.816269
-0.561526
-0.399179
0.119315
0.055926
0.79392
0.175223
-0.145056
-0.080285
-0.0219287
-0.27376
-0.480272
0.370421
-0.134444
-0.699185
1.63965
2.14067
0.863221
-0.301475
0.578248
-0.456911
0.563483
0.0365438
-0.773353
-0.492202
-1.3639
0.564617
-0.564897
-0.320856
-0.115958
-0.158367
-0.435989
0.447499
0.0276617
0.146036
0.260908
-0.432655
0.236242
0.176911
0.345918
-0.195695
0.603023
0.560003
0.802262
0.385731
0.839702
1.17993
0.689077
0.945683
0.130305
-0.297221
-0.527075
-0.763957
0.047403
-0.494029
-0.305099
-0.748019
-0.657807
-0.633964
0.606575
-0.271307
-1.60156
-0.215295
-1.26661
-1.12725
0.488734
-0.432425
0.0516265
0.601308
1.12856
-1.02761
-1.25728
0.583195
0.592004
0.445972
0.960628
1.86828
0.711966
0.605797
-0.593164
-0.206731
-0.252931
1.04074
-0.0501897
0.0810113
-0.170532
-0.90189
-1.03425
0.665666
-0.471514
-0.86818
-0.855078
0.282032
0.138668
-0.422507
0.33194
0.843244
0.633188
-0.0538897
0.331016
-0.0752955
1.0343
0.70986
0.546401
-0.579737
0.592032
0.728523
0.639165
0.50231
0.781742
0.468955
0.381091
1.10437
-0.393798
0.268855
-0.893327
-0.101094
-0.422668
0.262067
0.710277
-0.353059
0.584512
-0.453646
-0.00683475
-0.406778
0.412612
1.02136
-0.62311
0.59417
-0.541256
0.818125
0.874749
-0.00702735
0.515425
-0.392953
0.367784
1.91049
-0.526173
0.97122
-0.337943
-0.624913
-0.507575
-0.114743
0.0165684
0.11379
0.0238284
-0.415364
0.139523
0.466287
0.431227
0.624787
-0.68221
-0.570279
-0.0491896
0.18719
-0.190506
-0.0680565
-0.151826
-0.0375869
-0.119542
0.72522
0.057952
0.469914
-0.00248801
0.511983
0.993828
1.28758
0.408648
-0.279455
0.182217
0.657944
-1.11504
-0.261761
0.0632255
-0.367519
0.118243
-0.748
-0.121898
0.341098
0.798546
-0.535063
-0.121148
-0.263983
0.351451
-0.319689
-0.671121
-0.45978
-1.09109
0.761394
1.06524
0.75329
-0.370091
-0.565681
0.141385
-0.857071
0.582399
0.806391
1.60068
0.22424
0.678446
-0.246541
0.365144
-0.581379
-0.107379
-0.482602
-0.464169
-0.407624
-1.56176
0.784222
-0.354842
0.349895
-1.48027
-0.103881
0.387566
-0.702901
0.881354
0.280701
0.0764027
-0.273821
0.264839
0.188021
0.10858
0.338932
0.77853
0.144995
1.85003
1.00052
-0.575132
-0.339204
0.140636
-0.172257
0.606424
0.229314
0.432771
-0.692222
0.164314
0.238534
-0.03489
-0.219103
0.776718
0.509973
-1.7872
-0.0198226
-0.823609
0.538624
-0.594302
1.33284
-0.746475
-0.213722
-0.031772
-0.0930231
-0.521449
-0.815227
0.899714
0.0734544
0.737956
0.533186
0.467092
0.308625
1.001
-0.213741
-0.318486
0.0586072
1.08703
-0.0825854
-1.20464
-0.196818
-0.158097
0.160647
-0.240926
0.956715
0.267071
0.0842875
-0.516064
-0.51202
0.310641
0.130959
0.443545
0.770298
0.268102
-0.025818
0.599309
0.0596031
0.591877
1.05759
0.279357
0.584362
-0.295559
0.784516
0.583762
0.63278
0.22046
-0.24954
-0.0560923
-0.33664
0.522847
-0.728047
-0.498112
0.387601
0.355574
0.0126577
0.629921
0.452947
0.326511
0.115755
-0.359738
0.119965
-0.63148
0.595795
0.449293
0.0764035
0.772357
-0.786058
0.371884
0.37414
-0.377794
0.308557
-0.390053
-0.514765
0.76516
-0.685432
0.154581
-1.12212
-0.658117
-0.0750356
-0.41353
0.0630269
0.0951287
0.0516417
0.224633
0.252234
-1.30455
0.109997
-0.0180116
-0.706848
1.20965
0.20816
0.484086
0.29696
0.196275
-0.712108
0.477991
-0.149593
0.465782
0.137359
0.612542
1.09055
0.0991912
0.314617
-1.02835
-0.350047
0.241446
0.577962
0.949818
0.39333
-1.05515
0.0114489
-0.0617936
-0.44757
0.294426
0.515489
0.0921375
-0.501227
0.286622
0.471034
0.583147
-0.429372
0.841464
-0.190714
-0.151719
0.963884
-0.19654
-0.74097
-0.837996
-0.471562
0.0844763
-0.27705
1.20311
0.0405182
0.148001
0.400529
0.432135
-0.0091776
0.214683
0.318196
-0.42236
-0.686132
0.0155401
-0.278179
0.215533
-0.514612
-0.345977
-0.504049
0.21884
0.110321
0.63771
1.29064
0.888653
0.78212
0.0825936
1.03382
0.59855
-0.318983
0.176772
0.0171346
1.11943
0.607292
-0.486837
-0.307068
0.211371
-0.566345
-0.185013
-0.264369
-0.384119
-0.369598
-0.0787292
0.706143
-0.764164
0.271155
0.371336
-0.484031
-1.55312
-0.806314
0.371899
-0.3441
-0.43272
0.870845
-0.997524
0.969593
0.800475
-0.429581
0.252969
-0.00854651
0.470058
1.09575
1.05944
0.371375
-0.270552
-0.257152
0.703777
0.223866
0.565654
0.46857
-0.370637
-0.559919
-0.510349
1.46763
-0.00305245
0.631615
0.810693
0.444433
-1.26415
-0.903988
-0.534707
-0.138946
-0.185908
-0.359914
-0.00823979
-0.514986
-0.435872
1.00601
1.00785
0.996178
0.466493
0.427339
0.250487
0.51093
-1.12468
-0.0693392
1.41885
0.0840692
0.633732
0.526655
-0.243967
-0.0732859
0.639698
-0.403009
-1.02321
-0.978636
-0.473819
0.448111
-1.03246
0.991438
-0.621942
0.361545
-0.941018
-0.709132
0.210255
-0.140499
-0.569778
-0.20677
-0.723072
-0.358007
-0.29487
-0.804801
-0.487473
0.14055
0.797034
-0.474253
0.211303
0.87982
0.524381
-0.922647
0.330518
0.416006
-0.88831
-0.812886
-0.0919773
0.286378
-0.148594
-1.24081
0.583828
0.90021
-0.0482234
-0.855454
-0.203688
0.91959
-0.644956
0.922286
0.243497
0.470132
-0.558336
0.196263
-0.451832
-0.396801
0.105586
0.341771
0.44908
0.60241
0.193871
0.217731
0.280365
1.04826
-1.15633
-0.740336
0.224325
-0.537112
0.305514
0.639944
-0.45119
0.492504
0.344206
-0.0241324
0.556489
-0.916357
0.573551
0.132349
-0.0457557
-0.0322382
0.222996
-0.88028
0.851154
-0.984941
-0.290721
0.622217
0.34554
0.0557615
-0.553199
0.710876
0.596347
-0.630351
0.397259
-0.567688
-0.904157
-0.688357
-0.185793
-1.06906
-1.10629
0.0391984
-0.359846
-0.442479
1.20943
-0.911773
-0.104363
-0.697054
0.423068
-0.0895401
0.144952
-0.52186
-0.349658
-0.188049
-0.240947
-0.268955
0.0624232
0.33069
0.254117
0.451063
0.0169684
0.880675
-0.706998
-0.569076
-0.064078
-0.415877
0.24057
0.481053
-0.627769
-0.44948
0.296181
-0.207412
-0.00762882
-1.01024
0.310257
-0.161905
-0.110922
-0.894372
-0.265396
-0.213942
0.251771
-0.907966
0.200908
0.408552
0.80781
0.267205
0.126283
0.405027
1.07038
0.501242
1.43394
0.256208
0.831652
0.583948
1.2236
0.497338
-0.355691
-0.252418
-0.417417
-0.85232
-0.947508
-0.644003
-0.259374
-1.27033
0.364052
-1.07441
0.0187985
0.565512
-1.04204
0.766374
-0.621327
0.372207
0.759808
-0.656478
-0.148739
0.375005
0.143346
0.182004
-0.44598
-0.188756
-0.130113
0.171184
-0.223157
0.63005
0.506461
0.516112
-0.232262
-1.10268
-0.106032
0.241262
-0.401039
-0.107515
-0.944666
-0.226008
-0.325218
0.796167
2.71594e-06
0.569297
0.00849973
0.820822
0.816859
-0.483377
-0.388723
-1.31511
-0.35062
-0.615298
-0.0882824
-0.979892
0.774878
-0.150412
0.559285
0.625507
1.07738
-0.0539923
0.468667
-0.0622753
-0.520675
-0.32398
-1.1999
-0.801801
-0.783431
-0.666916
0.0810815
-0.382239
0.490879
-0.114615
-0.821642
0.073178
0.61209
0.125307
0.0243708
-0.0390755
-0.302951
-0.0592578
1.19787
-0.181515
0.58114
-1.03762
1.10759
0.608306
-0.203052
-0.137903
0.169622
-1.05952
0.602926
0.694144
0.141749
-0.00582944
-2.12819
0.462863
0.894321
0.477096
-0.296255
-0.811967
0.531079
-0.179506
-0.262867
0.141769
0.335687
-0.192445
0.41755
0.848044
-0.0265498
-0.946144
0.140638
0.0703088
0.125221
0.504715
0.426846
0.779009
0.131476
0.220934
0.0624593
-0.817096
0.763567
0.677915
-0.319782
0.0504804
-1.58317
0.174501
-0.819775
-0.379087
-0.625875
-0.280314
0.138837
-1.16245
0.371977
0.510201
-0.549921
-0.678689
0.232927
-0.0196493
-0.158119
-0.462867
1.32049
0.0156262
0.700557
-0.935296
1.49913
1.54477
0.901342
-0.138371
0.367128
-0.595857
0.795233
0.261523
-0.646768
-0.513641
-0.879933
0.467569
0.140261
-0.329645
-0.216576
0.726178
-0.903601
0.624052
1.06355
-0.346451
1.29381
0.423025
0.366446
1.30048
0.421211
-0.565838
-0.788047
-0.47349
0.187341
-0.404423
1.17917
0.774666
0.297028
0.810119
0.336772
0.424263
0.292904
-0.236849
-0.442178
0.130086
-1.28837
0.563531
-0.642696
-0.203146
-0.232912
-0.330358
-1.5818
-0.181443
-0.430838
-0.420549
0.757921
0.986022
0.196876
0.180573
-0.0505655
-0.237349
-0.305074
-0.0812887
-0.0812944
0.0313931
0.481453
0.880061
-0.828834
0.72939
-0.416233
-0.440762
-0.0717569
-0.672746
-0.815806
-0.781386
-0.211289
-0.165159
-0.315249
0.895862
0.195105
1.53797
0.382541
0.0740158
0.266306
0.00812014
1.47892
-0.626557
-0.475357
-0.711504
-1.21964
-1.14707
0.168545
0.142713
1.48282
1.4814
0.968878
1.68281
0.298996
1.13582
-0.348579
-0.580774
0.192271
-0.214047
0.0261696
-0.578747
-0.0974993
-0.152595
-0.356239
-0.740821
-0.320229
-0.670733
0.446601
-0.555586
0.898474
1.12887
-0.302884
0.458076
-1.22782
-0.0795469
-0.330502
-0.299931
0.687934
-0.530048
0.187864
-0.410499
1.26825
1.94131
0.594845
0.250583
1.17242
-0.0773269
-0.525956
-0.538859
-0.383443
-0.270164
-0.61864
-0.608407
1.1834
-0.550786
0.225283
-0.257379
0.706372
0.751969
-0.558731
-0.086088
-0.058026
0.14741
-0.434608
-0.756397
0.108045
-0.414382
-0.428125
0.667237
0.499657
-0.477391
1.8308
1.64176
0.829464
0.275396
0.123884
-0.278705
0.252345
-0.507062
-0.83262
-0.0125805
-0.968851
-0.332859
0.146308
0.303202
0.151386
0.434457
-0.87149
0.295011
-1.6053
0.0719049
0.6023
0.0831159
-1.54441
0.205785
-0.634728
0.106615
-0.875313
-0.512728
0.12225
-0.715164
0.817143
1.70175
0.622558
-0.410507
-0.0915319
0.381533
0.305101
-0.408475
0.0741579
-0.590786
-0.00689635
0.0473341
0.0164149
0.158932
-0.241251
-0.474047
0.757092
-0.077768
-0.691854
-0.158934
-0.407147
0.236758
-0.40186
0.274605
-1.13285
-0.533921
-0.746342
-0.696549
0.891108
0.272162
1.21823
2.2511
-0.29046
1.12929
1.01931
0.170117
-0.729994
-0.631478
-0.029426
-0.0471232
-0.754129
-1.24899
0.500485
-0.87018
0.013921
-0.975377
-0.468719
-0.332961
-0.215424
0.807998
0.00679221
-0.593891
-0.0159058
-0.162197
-0.168372
-0.75171
0.149495
0.491455
0.36587
-0.213018
0.848711
1.06924
0.943892
-0.254684
0.391849
-0.321348
0.350536
-0.435092
-1.08832
-0.99599
-1.31725
0.936564
-0.796537
0.12475
-0.110057
0.760078
-0.626645
-0.942233
0.376827
0.198626
0.611942
0.328309
-0.469822
-0.52985
0.322799
-0.0714482
0.740801
-0.678089
0.295585
0.620688
-0.175815
0.804881
0.619359
0.891823
-0.052259
0.344723
0.0636032
-0.56755
0.739884
-0.746929
-0.170694
-0.474821
0.509613
-0.159472
0.324077
0.00206992
-0.914806
0.493201
0.200542
-0.115758
0.181405
0.107801
-0.494703
0.582627
-0.562005
-0.0444976
0.139887
-0.125023
0.298434
0.308854
1.57442
1.19729
-0.18866
0.487855
0.498927
0.363928
0.610684
-0.397078
-0.290089
0.420518
-1.22689
-0.0474396
-0.297757
0.425673
-0.29318
0.383423
-1.7024
0.102628
0.643777
0.753493
0.463016
-0.426092
0.0196777
0.5162
-0.200598
-0.230945
-0.735481
0.410849
0.386361
-0.547395
-0.31301
0.282994
-0.0888238
-0.636719
1.6831
-0.284099
0.667044
-0.0740274
-0.555418
-0.808246
0.0934442
0.239951
-1.06715
0.0226111
0.4606
-1.20121
0.212648
0.286086
-0.208379
-0.221237
0.595224
0.0555371
0.684871
-0.965882
0.0322596
0.0191785
0.672869
-0.569518
-0.00242345
-0.508241
0.307682
1.38204
-0.128832
0.813915
-0.360804
-0.116876
-0.17674
-0.0554042
0.271458
0.33416
-0.0451655
0.600715
0.4902
0.28222
0.163759
0.629963
1.02765
0.369753
-0.0319632
0.170715
0.19637
-1.34788
-0.0962776
-0.213995
-0.404006
0.657248
-0.0761339
-0.45234
-0.397421
0.0258176
0.872375
0.676554
0.715443
-2.81202e-05
-0.039767
-0.572127
0.174257
0.167893
0.382928
0.644955
-1.09132
1.09782
0.329192
-0.916221
0.0321873
0.537018
-0.153922
-0.986186
-0.62914
0.593717
0.456196
0.190148
-0.209195
-0.668978
-0.288629
-0.20444
0.880321
1.12093
1.09038
-0.76627
0.614419
0.725126
0.148668
1.00469
0.176196
-0.678932
-0.144631
-0.110083
-0.0868123
0.321138
0.0122207
0.958021
-0.0493565
0.173847
-0.272023
0.24493
0.429081
0.85344
-0.235393
-0.263667
-0.088196
-0.0989054
-0.376531
0.350193
-0.213609
0.287671
0.896881
1.25872
0.375994
0.935711
1.01601
1.09531
-0.281915
-0.831527
1.30277
0.0154937
0.62734
0.0354401
0.311157
0.643116
-0.250377
1.01802
0.340988
-0.400067
0.578998
0.757265
-1.15189
-0.486724
0.684366
-0.323438
0.326315
0.760636
-0.937096
-0.669707
-0.983818
-0.524425
-0.285806
0.990978
0.21557
0.624925
0.73905
0.0533957
-0.292012
0.0465911
0.00478234
-0.399098
0.27152
-0.57249
-0.103291
-0.359192
-0.0644474
1.45895
-0.534333
-0.739186
0.252132
-0.855432
-0.489439
-0.0163944
0.291643
0.115414
-0.851483
1.41279
0.506735
0.773557
-1.07279
-0.557493
0.703598
-0.728909
0.590915
-0.0724771
1.09668
1.14124
0.711346
0.00516827
-0.389254
-0.885161
0.22625
0.516071
-0.388716
0.339749
0.301326
0.731447
0.184726
-0.0182518
-1.32263
-0.0130686
-0.825821
-0.249229
0.538562
-0.348552
-0.0286086
-0.167849
-0.00269494
-0.230392
-0.92819
-0.997075
0.0814079
0.168391
0.277281
-0.434089
0.943384
1.14599
-0.349449
-0.708054
0.599217
-0.935359
0.393118
1.08483
0.899326
-0.550028
-0.868163
1.35778
-1.00178
-1.31237
0.375856
0.466944
-0.260793
-0.448214
-0.8219
-0.519794
-0.457349
-0.228045
0.259854
0.155869
0.225175
-0.373922
-0.207674
-0.117518
0.332199
-0.41481
-0.257909
-0.775391
-0.0262614
-1.05166
0.532996
-0.430481
-0.744527
-0.8075
0.476631
0.485841
0.320459
1.02938
0.497057
0.787972
-0.601651
0.408922
0.932662
-0.232968
-0.753463
-0.951371
0.523262
0.586526
0.563076
1.17695
-0.176291
0.70116
0.843116
-0.997694
0.888257
-0.786383
0.250309
-0.801518
-0.624553
-0.457747
0.879787
-1.01056
0.751022
-0.303266
-1.41137
-0.308983
0.0113118
-0.593555
0.634129
-0.74845
0.0217066
-0.957894
0.585562
0.52091
0.906017
0.515595
0.0987824
0.132567
0.124203
0.155727
-0.618111
-0.852157
0.593859
0.171765
0.16634
-0.7668
1.22753
-0.0118373
0.521034
-0.408765
-0.707089
-0.265113
-0.641653
-0.0355785
-0.570679
-0.294932
0.0167082
-0.382983
-0.938849
0.340998
-0.24092
-0.914471
1.31039
-0.0334478
-0.468493
-0.726838
0.895844
-0.833267
-0.0505745
-0.319606
-0.129071
-1.1982
0.991815
-0.175665
0.291715
0.559504
0.861316
0.394582
0.0605834
-0.313548
-1.128
0.174813
0.491704
0.484805
-0.351982
-1.02327
-0.274972
0.209905
0.578411
-0.462131
-1.11019
-1.09623
0.437784
0.413299
-0.267216
-0.177061
0.223025
-0.242177
0.0132686
0.233104
1.0666
0.241554
0.243703
0.465779
-0.19037
-0.385031
0.652597
0.779459
0.0556932
-0.736957
0.746789
0.123517
-0.633571
-0.0301026
-0.168433
-0.247304
1.09535
-0.987902
0.679869
0.150963
0.673222
-1.5705
0.57232
0.0255181
0.152704
-0.464936
0.349136
-0.477916
1.04098
-0.0368274
1.03061
-0.147818
-0.0901099
-1.63433
-0.725744
0.0976774
1.25266
1.19507
0.117976
0.184582
-0.0932897
1.1267
-0.104553
-0.0291966
0.845426
-0.239427
-1.21588
-0.412356
0.0632654
-0.065911
-0.968457
-1.37469
0.31527
0.421978
-0.758205
-0.00265484
0.360268
-0.431878
-0.626548
0.761896
-0.000186741
-0.282046
0.851737
-0.102953
0.203506
0.0778933
0.772042
1.53621
-0.0156784
0.394289
-0.182371
-0.624908
0.567573
0.171218
0.148226
-0.241386
-0.56133
-0.476934
-0.0779268
0.147128
-0.454664
-0.612387
1.34468
0.456844
0.0681642
0.548587
-1.09543
1.04368
0.187795
-0.134133
1.18823
-1.18286
1.25647
-1.23431
0.913437
-0.777206
-0.0784191
0.360236
-0.755052
0.515399
1.17357
0.521696
1.14122
-0.0575892
0.102343
-0.863027
-0.199597
0.224253
-0.645535
-0.0257331
-0.0378826
-1.15421
0.231894
-0.416155
-1.10914
0.207512
0.971131
-0.935579
0.275546
-0.922283
0.221745
0.0639592
0.637601
0.980461
0.381589
-0.0379704
1.35342
0.120553
-0.592344
0.450894
0.476423
-1.12876
-0.503247
-1.34299
-0.484848
0.0707549
-1.37742
-0.302559
-0.34713
0.0825599
-0.324679
0.0637459
-0.039037
0.592324
-0.934122
0.179622
0.0238053
0.435187
0.58452
1.11905
0.311177
-1.50892
0.624879
0.286799
1.02332
-1.06524
1.52338
0.754663
0.152429
0.85863
0.966269
-0.132809
-0.121403
-0.614132
0.05227
-0.935647
-0.593601
-0.604812
0.305482
0.0737124
0.821982
0.274224
0.863048
1.31746
-1.27485
-0.989658
1.07146
-0.496252
-1.00262
-0.215188
0.16296
0.0784745
-0.0235075
0.918428
1.20042
-0.243985
1.60843
1.16999
0.937231
0.0402926
0.47929
-0.343684
-0.180619
0.407352
-0.905051
-0.973288
-0.774315
0.226768
0.568215
-0.115744
0.416307
0.837476
0.34494
-0.324013
-0.215715
0.852642
1.33193
-0.0650205
-0.330917
0.613823
0.510628
-0.692239
0.900977
1.17196
1.44082
-0.0810679
0.6726
0.208229
-0.343414
-0.146998
-0.00293807
0.256509
-0.717844
0.273128
-0.275542
-1.05118
-0.792853
-1.07913
0.189829
0.292414
0.593154
0.238381
-0.0865555
0.0458434
-0.467472
0.254137
1.25167
0.408021
-0.918173
-0.264514
0.431527
-1.51026
-0.762916
-0.181436
0.451835
-0.274401
1.5056
0.419417
0.916515
0.393378
-0.106383
-0.925991
0.086158
-0.105325
-0.618852
-0.528126
0.333242
-1.03727
-0.239675
0.76548
-0.208923
0.29143
-1.53785
-0.250474
-0.433923
0.0246682
0.526283
0.272334
-0.136291
-0.746734
0.622304
-0.506856
-0.266705
-0.405778
0.451011
0.121157
1.56625
1.65599
0.0492478
3.61347e-05
0.218814
-1.08745
-0.789548
0.0993905
-0.487844
0.43054
-1.17307
-1.34681
0.601218
0.512725
0.44888
-0.445815
-0.256121
-1.08516
-1.05249
0.0128127
0.357214
-0.437542
1.49976
-0.209911
0.0702929
-0.252544
-1.09346
0.162954
0.567382
-0.0124598
-0.107594
1.00536
0.534844
0.320741
0.718517
-0.0367164
0.966031
-0.382782
-0.100625
0.37471
-0.392762
-0.039138
-0.254512
0.335861
0.684699
0.674503
0.978594
-0.448183
-0.379643
0.0545525
0.382901
-0.0189451
-0.350549
0.635721
0.328348
-0.837431
0.46735
-0.142461
1.39874
0.253507
0.417909
0.720964
1.53333
0.0474255
0.00646297
-0.815984
-0.221861
0.942204
-0.417235
-0.972893
-0.986865
-0.110786
-0.221127
0.477918
0.057089
-0.365885
0.174419
1.45692
-0.634849
-0.182962
0.37144
0.782045
0.00371686
-0.22647
-0.0844917
0.300223
-0.942232
0.189621
0.250185
-0.325998
1.08207
-0.251999
0.353001
-0.368457
0.721077
-0.772654
0.0731294
-0.595052
0.00245702
-0.26028
-0.779605
0.755103
-0.49259
0.217583
-0.602453
0.668715
-1.22245
-0.07831
-0.156595
0.191227
0.518312
0.13828
-0.397466
0.613651
1.03211
-0.315167
-0.515649
-0.16079
0.311604
1.02654
1.11357
0.553303
-0.200796
0.168875
0.525339
-0.609215
0.326098
-0.585284
-1.49332
-1.2801
1.16545
0.818075
0.0279969
-0.634837
0.0974216
-1.19296
-0.155834
0.123825
-0.526323
-0.485198
1.31711
0.4992
-0.517508
-0.859834
0.558975
-0.00872741
-0.506406
-0.136667
-0.486897
-0.0566913
2.00208
0.26755
-0.465572
-0.364704
0.601624
-0.516437
-1.06606
-0.447074
0.16025
1.14252
-0.298134
0.569133
-1.1498
-0.0527426
1.7065
0.0977466
0.315022
0.470083
-0.547727
-0.145836
-0.531638
0.559398
-0.352177
0.736582
-0.202086
0.527873
0.0465377
-0.538126
0.7123
0.294698
1.586
-0.725222
-0.110867
-0.811935
-0.518135
-0.0165169
0.231183
0.280914
0.0975473
0.115197
-0.8818
0.0287064
-0.916209
-0.0768488
-0.473839
-0.0989599
0.256676
-0.23103
0.146486
-0.473056
0.445784
-0.755236
-1.41899
-0.340367
0.233147
0.798964
-0.12948
0.0364179
0.668103
0.386046
0.954335
0.236898
1.0711
-0.394001
-0.316597
-0.92719
-1.31346
-0.504889
0.851208
0.513755
-1.32213
0.416059
-1.02002
-0.23008
0.180693
0.0330114
-0.88012
-0.605807
-0.943569
-0.302409
0.290464
0.0941905
0.331142
1.0668
-0.676011
0.293763
0.71086
-0.355611
0.1876
-0.404534
1.24723
-0.913273
-0.409851
0.119005
0.313351
0.247668
-0.455282
-0.00642553
-1.30582
0.646619
0.541085
-0.0448905
-0.322015
0.811571
0.686737
-0.948481
-0.984987
-0.301271
-0.257937
0.0640408
0.0663393
0.789681
-0.638248
0.31517
0.825071
0.693531
-0.633564
0.308522
-0.306465
0.338299
0.352749
1.28614
0.957662
-1.00444
1.34405
-0.682384
0.642128
0.169361
-0.0221763
-0.363938
-0.375837
0.929269
-1.08145
0.69057
0.819206
-0.614218
-0.479757
0.266029
-0.172347
0.226743
-0.468229
0.330243
-0.921066
-0.371106
0.565291
0.467886
1.01794
0.846663
0.303568
1.48057
-0.00945387
-0.41393
0.311209
-0.50493
0.749461
0.189344
-1.15985
-0.965757
-0.250852
0.116466
-0.772399
0.9909
-1.48196
-0.312406
-0.569011
0.881405
0.365098
-1.09777
-1.05555
-0.420476
0.0250492
0.169295
-0.269418
0.108045
-0.924783
-0.609195
0.306377
0.922412
-0.0294991
0.376628
0.506388
-0.873172
0.965491
-0.0834849
0.791272
1.0361
0.194503
0.595846
0.717448
-1.40075
-0.372937
0.81499
-1.71947
0.139012
0.160516
-0.29201
0.0598241
-0.048342
0.253744
-0.0414003
-0.244009
-1.00938
-0.85774
-0.0230036
-0.187548
0.492609
-0.342521
0.712983
0.288073
-0.917808
0.493828
0.408807
0.635429
-1.17943
-1.35437
0.297966
-0.276704
0.538294
0.194067
0.810815
0.451257
0.993944
0.036406
0.463817
0.558065
0.447884
-0.523694
0.285268
0.106666
0.430941
0.286164
-0.0546923
-0.640318
-0.232888
0.393079
0.609145
1.11469
-0.732077
1.81415
0.177191
0.71647
1.29395
0.862015
0.00351212
0.0723658
0.0294431
-0.483079
-0.557663
0.652439
-1.08208
0.170981
1.67452
-0.488777
0.608562
0.0401344
0.530441
-0.792198
-0.380462
-1.20196
0.590358
-0.272497
0.648303
-0.662365
-0.18137
-1.05823
-0.120738
2.12865
0.196594
1.4959
0.791222
0.566497
1.17253
-0.301415
-0.799653
0.544753
0.77777
-0.939548
0.2383
-0.769645
0.4409
0.506471
1.98477
-1.11523
-0.449702
0.745451
1.53804
-0.77727
-0.723519
-0.367293
0.689356
-0.231419
-0.678005
-0.336095
0.683112
0.303195
0.355214
0.566077
0.135087
-0.339924
1.1806
-0.230882
-0.186895
0.834386
0.0323843
-0.233599
-0.35322
-0.380155
-0.311331
0.322174
0.649723
0.263018
0.0795142
0.336191
-0.106376
0.327278
-0.287488
-0.657712
0.994187
-0.653255
0.166166
0.800241
-0.42974
0.404605
-0.776051
-0.230496
-0.322006
-0.601334
-0.179483
1.06368
1.02914
0.315359
-0.77108
-0.15658
-0.51829
-0.837391
-0.525278
0.460561
-0.565092
0.165035
0.0264909
0.181431
-0.292625
0.984761
0.406592
0.767118
-1.50253
0.257242
0.522202
-0.753907
-0.144883
-0.835835
-0.694183
0.406135
-0.413461
-0.67131
-0.0846387
0.112337
0.420305
0.47488
0.118966
-0.379231
1.3288
0.625122
0.00390088
-0.429688
-0.632343
-0.707699
0.789187
-0.384273
-1.35683
0.179952
0.364211
-0.656179
-0.448255
-0.918622
-0.238473
1.13301
0.424153
-0.191188
-0.332054
0.492699
0.150524
0.940705
0.811734
0.510923
-0.118742
-0.823211
-0.239732
0.258889
-0.106519
1.11625
0.426478
0.718774
0.233958
-0.0346124
-0.632684
-0.255294
-0.302235
0.902598
-0.132423
-1.3311
0.378403
-0.0959254
-0.141803
0.00270715
-1.01795
0.760973
-0.931233
1.07382
0.605572
0.253626
-0.84727
-0.746629
0.52738
0.344623
-0.235743
-0.0641579
-0.171529
-1.12023
0.198404
1.41548
1.30822
-1.03955
-0.625651
1.01121
1.05809
-0.513191
-0.379669
0.361595
-0.465537
0.399523
0.584053
-0.409101
1.02439
-0.0297291
-0.297755
0.274758
0.193065
0.353893
0.0587432
-0.602665
0.266528
-0.465099
0.506395
0.942007
-0.622807
0.00630082
-0.972881
0.156799
-0.0833843
1.28867
-0.198997
-0.331239
0.786331
0.447001
0.276323
-0.262237
-1.1314
-0.379163
-0.2545
0.698732
-0.436421
-0.108136
0.620134
-0.745855
-1.28976
0.895055
0.651567
-0.0782887
0.51256
-0.704099
-0.476022
0.417413
0.70181
0.819134
0.298693
-0.672357
0.150296
0.435524
-0.926569
2.1423
0.366699
0.614192
0.441946
0.499982
-0.0428187
-0.0253476
0.271711
-0.955944
-0.876858
0.637302
-0.758746
-0.698224
0.676556
-0.174749
-0.196452
0.0790104
0.0592077
-0.38895
0.649201
0.914701
-0.518456
-0.674642
-0.451456
-0.0147623
-0.244554
0.361662
-0.828558
0.166403
-0.484337
1.5395
0.731984
-0.694318
-0.533772
0.363699
0.259974
-0.853289
0.788746
-0.430631
-1.08014
-0.050146
-0.100849
-0.331829
-0.811992
-1.30154
-1.30444
0.938874
-0.8695
-0.274699
0.632936
-0.079992
-0.526009
1.27112
0.667706
-0.561571
-1.02485
-0.483967
-0.506777
-0.0565441
-1.01383
0.648744
0.478589
-0.00437167
0.384341
-0.169156
-0.650016
0.96286
-0.549491
1.133
-0.831362
0.234224
0.166527
-0.24815
0.601199
-0.847733
-0.657769
1.456
0.0690222
0.305075
-0.764389
0.774891
0.659596
-1.08184
0.317166
0.525078
-0.00767822
-0.406252
-0.540872
0.770119
-0.959742
0.811898
-0.653224
-0.037388
-0.0731928
0.26346
-0.171221
0.416421
-0.999848
0.968608
-0.413581
0.596149
-0.754842
-0.335864
-0.0786956
-0.439354
-0.452219
0.325941
0.498534
-0.886422
-0.386207
1.34638
-0.451369
0.312372
-0.297251
0.446875
-0.600734
1.08869
0.841617
0.181153
-0.914835
0.830411
0.456224
0.100259
0.67409
1.02318
-0.195226
-0.873132
-1.2821
0.295278
-0.570765
0.837388
-0.394274
-1.11417
-0.187464
0.0512168
0.184642
1.55292
0.0626061
-0.205602
-0.0386461
1.31913
0.29047
0.412457
-0.244296
0.299186
-1.29153
-0.141309
0.353743
-0.145985
-0.126527
0.0433519
-0.0734296
0.553518
0.256904
-0.362807
-0.139913
0.153728
-0.98383
0.94889
-1.07102
-1.10108
-1.56063
-0.426683
-0.748656
-0.524399
0.62654
-0.464946
-1.29669
0.0221638
-0.229651
0.328555
0.191929
0.00838623
1.02578
0.0281432
-0.462147
0.116643
0.905233
0.0624805
-0.455721
-0.490795
0.587628
-0.178332
-0.153957
-0.261836
-0.139281
-0.0599113
0.701636
-0.0582745
-0.233014
-0.456617
-1.36149
0.642185
-0.374919
-0.557604
-0.276486
1.51733
-0.0489833
-0.302146
-0.150172
1.87036
0.00785161
0.293508
0.358654
0.235926
-0.552101
-0.483208
-0.881575
0.30489
1.09459
0.702535
0.907867
0.115584
0.0952808
1.22244
0.139064
-0.00966376
-0.289297
0.262759
-1.02327
-0.896536
-1.11826
0.382451
0.404824
-0.492246
0.961644
-0.403939
0.431308
-0.683375
-0.367122
0.516321
0.405826
-0.70717
0.0760873
-0.409809
0.247832
-0.321701
0.893993
-0.304588
-0.0663528
1.17956
0.75487
-0.405536
-0.320807
0.824347
-0.594149
0.526253
0.14744
0.132712
-1.44764
-0.420176
-0.719794
-0.393685
-0.603992
0.00638449
-0.409838
0.471898
-0.297419
-1.04001
0.133702
-0.134139
0.212917
0.299934
-0.5478
0.809417
-0.943282
0.350967
-0.320833
1.1741
1.00582
0.142338
-0.199595
0.446764
1.09976
1.10181
0.356227
-0.232709
0.526486
-0.505828
-0.485803
-0.115857
-0.000259018
-0.724121
0.0590991
0.467612
0.6441
1.67255
-0.0668427
-0.640947
-0.23736
-0.0393645
0.258282
-0.841071
-0.43326
0.178846
-0.0855037
-0.136022
0.193328
0.475494
0.182301
1.80775
0.713336
-0.0610675
0.38888
0.291037
0.257206
1.81929
0.127681
0.410526
-0.021969
0.174942
0.480776
-0.0462457
-0.585079
-0.118106
-0.0400976
1.03091
-0.547964
-1.3784
0.461718
-0.0581912
0.451933
0.393863
0.502547
0.155864
0.858774
0.075369
1.37795
1.51707
1.08901
-0.390763
0.174869
1.04618
-0.172665
0.144138
-0.0780136
-0.718252
0.475354
0.14089
0.985334
-2.1496
0.0526565
0.686565
0.928452
-0.338733
0.963152
-0.847341
0.290832
0.640681
-0.679328
0.281721
0.91262
-0.421193
0.350929
0.0338678
0.133195
-0.144228
0.346963
0.203208
-0.20161
0.179387
0.343337
-0.172634
-0.370916
0.751506
0.670977
-1.20752
-0.492157
0.494279
-0.605234
0.106991
-0.290042
-0.481945
0.368259
-0.118898
0.805741
-0.586978
0.232575
-1.40522
-0.0855104
0.130028
0.0976048
1.51331
-0.49747
1.61066
0.136631
-0.482757
0.341658
0.758073
-0.233591
1.67256
-0.437513
0.985899
0.849439
0.212764
0.934727
0.379359
0.163717
-1.03673
0.0283269
-0.398806
-0.0196613
-0.020917
-0.427357
-0.0146432
-0.357656
-0.685731
1.45793
-0.676072
0.510045
1.1714
-0.534405
-1.08915
-0.172255
-0.191514
1.21126
-0.226192
0.0811087
0.46991
0.183609
0.086657
0.740694
0.0963366
-1.23676
-0.218067
-0.836215
0.459797
-0.566799
-0.0974966
-0.462537
-0.108772
-0.537761
-0.664509
-0.392682
0.499701
0.54036
-0.156132
0.549379
0.26743
-0.851076
0.287507
0.518267
-0.259515
-0.607355
0.166276
0.300934
0.19067
-0.518678
1.53454
0.658941
0.171348
-0.673959
0.180082
0.832054
1.15258
0.436037
0.791563
-0.251473
0.365488
-0.176289
0.22773
-0.0424542
-0.276963
0.0437432
-0.747968
1.13042
-0.648052
-0.0210098
-0.0943492
0.612632
-0.31356
0.402031
0.108319
-0.108726
0.593098
-0.323417
-0.274052
1.20262
0.876536
-0.555071
0.684276
0.653787
0.104205
0.0270647
-0.121023
-0.682131
0.182507
-0.591627
-0.0280846
-0.528914
-0.910598
0.922288
-0.674069
0.541898
-0.209036
-0.632266
-0.83584
0.0152017
0.634605
-0.253934
0.574823
-0.482203
0.126754
-0.310757
-0.179569
-0.115702
0.00407008
0.79963
1.11475
0.607479
1.33939
0.657871
-0.110492
-0.0767103
-0.296464
-0.3004
1.04016
-0.747549
0.327911
0.120734
0.283457
-0.485269
-0.0304229
-0.676811
0.860506
0.625614
-0.944608
-0.183874
0.201355
-0.433539
-0.521326
-0.408694
0.514023
-0.462211
1.23809
1.47443
0.690172
0.503964
0.92782
0.317425
1.37197
0.022677
-0.311566
0.392497
0.988859
0.413829
-0.234823
0.34342
-0.397027
0.212515
-0.428291
1.66067
-0.783863
-0.352541
-0.786611
0.193537
-0.801469
-0.791089
0.165736
-0.539407
0.125388
0.0109251
-0.551431
-0.00733936
0.504836
0.777375
0.0837652
0.417193
0.952623
0.375746
-0.0611267
0.776335
0.19893
-0.626685
-0.534442
-0.620954
-0.445444
0.710023
-0.276928
-0.9899
0.750571
0.393999
-0.358623
-0.145604
0.225046
0.258597
-0.857205
-1.35764
0.0408589
-0.128774
0.151657
0.881738
-0.600335
0.0317879
0.164756
-0.563798
0.597339
0.911031
0.281622
-0.1315
0.131548
0.380541
0.579645
0.322246
-1.20488
0.114168
0.413699
-0.238229
0.59808
-0.254706
-0.0951366
0.857491
-0.429308
-0.466983
-0.687399
1.06009
-0.60962
0.222233
0.406264
-0.234108
0.579449
1.34078
-0.135804
0.332017
-0.341253
-0.52746
1.304
0.845076
0.295085
1.03566
-0.399766
0.22078
0.719464
-0.192498
-0.38085
-0.432904
0.193041
-0.53521
0.419714
1.10631
-0.574313
1.62534
-1.61263
-0.665461
-0.399927
0.409555
-1.65981
-1.07272
-0.288699
-0.533224
-0.124234
0.278798
-0.0120509
1.17286
-0.502197
-0.542186
0.590756
0.765202
1.1359
-0.0568424
0.286554
0.53115
0.117246
-0.853523
0.0812388
0.312905
-0.699738
0.279809
-0.506854
-0.731324
-0.949169
-0.979926
-0.242747
-0.458887
-0.413174
-0.00683119
-0.148716
0.514033
0.0743034
0.274273
1.01211
-0.759025
-0.407959
-0.491808
0.711864
-0.410788
0.118004
0.572158
0.920248
-0.362837
0.301812
0.371841
-0.552161
-0.653645
0.35968
0.181184
-0.257812
0.0326006
0.695162
-0.404152
-0.246333
0.444301
0.712838
-0.297189
0.215484
-1.64381
-0.38443
0.429494
-0.561818
0.827417
-0.273717
0.251335
-0.192661
-0.365363
-0.804507
0.399933
-0.942416
0.350278
-0.577732
-0.919316
-0.169312
-0.321965
-0.0462004
0.0600489
0.703729
-0.726609
-1.29231
1.463
-0.55593
-0.221474
0.384087
-0.785433
0.0635102
0.370997
0.324488
-1.64332
0.652284
-0.11817
-0.52331
0.189889
0.101383
0.139981
-0.731998
0.352667
0.256004
-0.0991417
0.806886
0.993152
1.26951
-0.612674
0.0886103
0.638544
-1.02806
0.725799
-0.0325142
0.00663706
0.524486
-0.528919
0.220361
-0.954057
0.135592
0.497957
0.605108
0.302253
0.595392
-1.18809
0.849188
-0.246591
-1.46783
0.726333
-0.595481
-0.606415
0.524368
-0.369841
-0.771122
-1.52862
-0.999137
0.615005
0.603933
-0.19459
1.32529
0.37175
-0.228808
0.942156
-0.211041
-0.4147
0.769099
-0.0175171
-0.537221
0.265442
0.744818
0.39722
0.360113
-1.04057
-0.726859
0.0118562
1.0121
-0.98098
-1.08548
-0.75396
0.140561
-0.576809
-0.145779
-0.0260259
-0.292441
0.347878
-0.180247
-0.62092
0.480114
-0.388672
1.80759
1.21771
-1.30434
0.520361
-0.198614
0.920339
-0.474333
0.151805
-0.38168
-0.410627
0.617869
-0.32775
-0.0812446
-0.184728
-0.23074
-1.48866
0.0355153
0.31677
-0.374072
0.120105
-0.662192
0.0460151
-1.03172
0.160321
0.6705
-0.680337
-0.0863058
0.489203
0.26709
-0.0298417
0.682665
0.101816
0.663156
0.765532
0.167079
-0.136066
-1.00859
-0.414474
-0.231939
0.607654
0.356261
-1.27508
-0.402366
-1.19854
0.578926
-0.0237626
1.16379
-0.499043
-0.271641
0.176287
-0.469353
0.502994
-0.508394
-0.591107
-0.542914
-0.964727
-0.623624
-1.4079
-0.0146687
-0.562067
2.07873
-0.187165
-0.445762
0.604053
0.2499
-0.080574
-0.129223
0.372474
0.690255
-0.236276
-0.163008
-1.08633
-0.568668
0.228972
-0.408157
0.960594
2.03072
-0.641316
0.103631
0.250876
0.13781
0.582249
0.645147
0.67312
-0.151518
-0.864917
0.082252
-0.102362
0.714145
0.348355
1.38708
0.363474
0.466861
-0.13237
-0.295931
-0.333482
0.240157
0.731335
0.215644
0.891618
0.0545766
-0.564105
0.0121802
0.626051
-0.60749
0.301333
1.51398
-0.864504
0.292899
-0.962461
-0.320858
-0.346762
0.14128
-0.248622
-0.0098066
-0.744014
-0.0714227
-0.433067
-0.0415146
-0.59448
0.473588
0.417606
-0.689791
0.657189
0.632432
0.354444
0.576657
0.308708
0.419604
1.31122
1.28301
0.168371
0.145761
-0.358672
-0.0151265
0.150461
0.188308
-0.521654
-0.831509
-0.0132917
-0.0465519
0.0634272
0.167656
0.00829082
-0.746866
-0.692463
-0.235357
-0.231582
0.268661
0.874492
0.212242
-0.372244
0.0232676
-0.314244
0.624732
0.376471
0.372911
-1.48326
0.299179
0.0951642
0.25756
-1.01277
-1.15613
-0.3778
-0.187889
-0.611514
-0.608407
0.210061
-0.109707
-0.159412
1.18476
0.784439
-0.449757
0.693218
-0.777091
-0.785384
0.259069
-1.24989
1.16129
0.36885
0.787074
-0.380255
-1.57402
0.62695
0.390014
-0.76528
-0.38852
0.283653
0.572312
0.0114032
0.271553
0.277879
-0.607975
0.564973
-0.569738
0.396504
-0.0731688
-0.20926
-0.465106
-0.0731714
1.92825
-0.0169624
0.21729
0.850433
0.55925
-0.0497868
0.37328
0.347853
0.726541
1.35481
0.929327
-0.314026
1.01375
0.107538
0.714078
0.189006
0.0391145
-0.940688
-0.175694
-0.0599282
0.475215
0.646668
-1.22596
-0.54032
-0.0898283
0.813118
0.115028
-0.874261
-0.606188
0.770391
0.483508
-0.157974
-0.136875
0.642944
-0.193166
-0.500987
1.17375
0.861518
1.36158
-1.08582
-0.657475
-0.39267
0.827695
-0.333901
0.450686
1.24742
-0.864864
-0.234629
-0.044265
-0.813927
0.177313
-0.808676
-0.0134243
-0.0997259
0.0871772
1.40497
0.903528
-0.187546
0.847964
0.331363
1.23576
0.858468
0.486712
-0.409993
0.625551
-0.860806
-0.912672
-1.17117
0.439538
1.41858
0.352748
1.05807
0.599676
-0.109665
0.101943
-0.406366
-0.43477
0.156743
0.61863
0.205482
-0.937099
-1.25204
-0.019147
-0.565933
0.488693
-0.192836
0.0703473
-1.2175
-0.0969879
-0.404431
-0.236614
-0.721954
-0.161198
0.354042
0.543564
-0.176629
0.30077
0.945082
-0.628615
-0.0418893
0.52927
-0.507792
-0.33642
0.047886
0.357124
0.879581
-0.809683
0.15346
0.300917
0.565394
-1.00707
-0.80598
0.146898
0.847292
-0.319335
0.512127
0.0234754
-1.03747
-1.1255
0.333144
0.00260511
-0.227523
0.412812
0.189595
-0.169445
-0.58077
-0.258516
-1.0673
0.184068
-0.227579
0.158138
1.07633
0.610012
0.37148
1.46235
0.617874
-0.437202
0.50379
-0.588077
0.763764
-1.38123
-0.0776195
-0.176783
0.977915
0.107812
-0.696832
-0.07958
0.116155
-0.612998
0.395678
0.33523
-0.266695
0.0850802
0.124815
0.38879
-0.281169
0.888336
-0.145623
1.31723
0.33443
0.346374
0.76913
-0.0399612
0.457182
-0.531029
-0.783472
0.154554
0.693716
-0.652944
-0.608642
-0.307515
-0.294829
-0.463605
-0.355364
-0.284497
-0.251872
-0.580139
-1.34422
0.400395
-0.0812385
-0.130585
-0.202319
-0.338568
0.421398
-0.39045
-0.860488
-0.624971
-0.347407
0.195783
-0.328807
0.0689954
1.13151
-0.423077
0.336996
0.659378
0.0375836
0.618285
0.210534
0.305026
-0.921369
-0.260068
-0.685312
-0.935868
-0.586504
-0.365297
-0.476523
0.900897
0.231102
0.196369
0.321493
-0.903968
0.043165
0.0882596
0.027551
0.318171
-0.632305
-0.302971
0.039639
1.48063
-0.206399
0.400016
-0.372002
0.10935
1.05407
0.64717
-0.292392
-0.173235
-0.208491
-0.735641
0.716108
-0.683237
0.556484
-0.525865
-0.120787
-1.05449
1.0376
-0.729744
-0.235014
-0.459667
-0.321589
-0.206134
0.451586
-0.845549
0.0197873
-0.491633
0.115195
-0.152223
1.11666
0.359096
-0.0486829
0.398594
-0.0507166
0.0440401
-0.17351
0.44087
0.301075
0.156617
-0.205812
0.627881
-0.545735
-0.130798
0.371973
0.0467194
-0.751661
-0.0745467
-0.954143
-0.131683
0.0135746
0.0773862
0.146288
0.543463
-0.870724
-0.000266136
-0.020316
0.26145
0.0576192
-0.568492
-0.441536
0.742771
-0.503341
-0.935266
0.703626
-0.120257
-0.280361
1.159
-0.361955
0.629667
-0.705259
-0.162346
-0.286179
0.113499
0.770529
0.500769
-0.312584
-0.741348
0.295293
0.597465
0.0121202
0.739833
0.165299
-0.0661463
-0.552343
0.185373
-0.274927
-0.367484
0.412949
0.847159
0.265937
1.07222
0.117538
-0.00818611
-0.152336
-0.862832
0.572774
-0.264615
0.141387
-0.821537
-0.79659
-0.461267
0.0339035
-0.80449
0.0986905
-0.0891624
0.361054
0.0635713
0.626362
-0.0403093
0.581923
-0.353493
-0.849371
-0.389729
0.94638
-0.544834
-0.0887556
-0.348579
-0.0412623
-0.0237371
0.20682
-0.119281
0.683528
-0.414054
-0.591747
0.625681
0.146098
-0.260708
-0.492567
1.1845
1.06779
0.183133
0.0482599
-0.733582
-0.341212
-0.338591
-0.172404
0.239986
-0.459133
-0.782251
-0.254735
0.642445
0.566857
0.389618
0.483175
0.228383
-0.347044
-0.349851
-0.615802
1.63649
1.15449
0.18999
0.709391
0.253137
-0.0945555
0.357349
-0.175969
0.246533
0.220451
-0.287346
0.716522
-0.291088
0.291392
-0.277702
1.44139
-1.19938
-0.0889465
-0.910035
0.663055
0.180005
-0.148373
-0.729944
0.0140577
0.117385
-0.00624047
-0.663468
-0.732828
0.430759
-0.0222894
0.90879
0.599549
0.0214574
0.141097
0.813612
0.0725206
0.58866
0.53386
-0.00187059
-0.135457
0.0247016
0.892467
-0.68164
-0.101898
-1.37585
1.02627
-0.280232
0.372117
0.384377
0.114032
0.812013
0.934892
-0.687202
-1.15746
0.108151
0.854838
-0.177894
0.26377
0.0617723
0.762517
0.0402593
-0.625119
1.21496
0.24225
-0.722195
1.42942
-1.05461
1.34996
0.413418
-0.607262
1.00222
-0.340488
-0.386796
0.052354
0.718142
0.320908
-0.572148
-0.27457
-0.242495
-0.825819
-0.295075
-1.09724
0.439142
0.974206
-0.280902
1.08971
0.359698
-0.483855
-0.501825
-0.435534
1.83597
0.0120895
0.335739
-0.825761
-0.941227
1.42192
1.13927
-0.520363
0.57867
0.226751
0.748964
0.186935
-0.145559
0.806212
-1.54883
0.543611
-0.660186
0.189892
0.873993
0.610567
-1.11916
-0.652278
0.86773
-0.0943647
-0.416227
-0.555249
-0.363211
-0.388149
0.290271
-0.152839
0.85594
-0.772587
-0.404534
-0.0784217
-0.149714
0.469262
-0.902163
0.293265
0.161485
0.514383
0.609668
0.237305
-0.671741
0.148942
0.267985
0.511428
0.134219
-0.75275
-0.282283
-1.50554
0.385399
-0.436176
-0.14039
-0.453721
0.279994
-0.133025
-0.715241
1.17213
-0.255364
0.59323
0.028296
-1.29548
1.05148
0.441608
-0.133218
0.890043
-0.377105
0.675607
-0.939709
-0.056033
-0.122412
0.102951
0.237005
0.560097
-0.668314
0.330665
1.16827
0.833612
-0.588527
-0.505102
0.727905
-0.0378675
0.102343
-0.254532
-0.747273
0.117268
-0.485432
-0.62418
-0.45795
0.180006
-0.694899
-0.0890142
0.0698712
-0.352249
0.653727
-0.355068
-0.917019
0.879093
0.036004
-0.69917
-0.178232
0.0976701
0.475759
0.265951
-0.34423
-1.32548
0.256682
1.3844
0.0842475
0.182882
0.747964
-1.35009
0.579069
0.952746
-0.318469
0.557949
-0.0503129
0.452418
-0.189742
-0.322987
0.446187
-0.359966
1.06844
1.26382
-0.347773
-0.238219
-1.25567
0.504411
1.15035
0.829957
-0.846643
1.01599
-0.715515
-0.148254
1.04767
-0.587536
0.631083
-0.126211
-1.18042
-1.20278
1.42745
0.247541
-1.25251
0.492825
-0.135185
1.05339
-1.11954
-0.497563
0.257278
0.303027
-0.49136
0.233398
0.466187
-0.514368
1.40213
0.936692
0.0642271
-0.13794
1.11417
0.0939051
-0.458102
-0.745313
0.308211
-0.0491049
1.34065
0.584158
-0.156891
0.922536
-0.517123
-1.39652
1.08972
-0.633814
-0.197875
-0.680824
-0.308385
0.320708
0.348187
0.764084
1.10541
-0.826982
0.16384
0.480134
0.795786
-0.397007
0.385551
1.12793
0.0349271
0.426845
-0.138475
-0.447269
0.137504
-0.297831
0.301917
1.44903
0.293334
-0.605592
0.37215
0.00961092
0.150677
-1.76625
0.147649
0.771927
-0.773323
-1.05409
-0.172449
0.460529
-0.399264
0.441676
0.579033
-0.846655
-0.254266
0.249641
-0.262692
-0.0487375
0.702031
-0.23159
-1.57488
0.530976
0.227116
-0.17301
-0.203883
-0.501514
1.50328
0.467866
1.36774
-0.40096
0.616642
-0.0862803
-1.23722
-0.0279029
0.209813
-0.624995
0.388649
0.178879
0.538538
0.593799
-0.748122
-0.870312
0.914948
0.0316873
0.086574
-0.014935
0.382384
-0.0140597
2.59769
0.472968
-0.772552
0.298608
1.11572
0.798274
-1.06617
0.0117545
-0.216644
-0.33407
0.658906
0.361371
0.347465
0.65196
0.404447
0.397095
0.300238
-0.397265
1.0893
0.79184
0.248264
0.752536
-0.0455994
0.476634
0.418678
-0.810858
0.625565
-0.7196
0.633739
-1.66479
0.843601
-0.00829157
-0.384661
0.479124
1.63735
0.0729252
-0.215368
-0.720776
-0.344047
-1.11971
0.0202473
0.105269
-0.484843
-0.794044
0.359274
0.4212
1.4056
0.372792
-0.412188
1.18769
-0.562143
-0.135695
0.258999
-0.753413
-0.0790362
-0.793549
-0.504199
-0.418447
0.0814889
-1.38646
0.198252
1.49225
0.279396
-0.199294
0.612228
0.357054
-0.487284
0.600217
-0.373131
0.236256
0.133112
0.203381
-0.675568
-0.676995
-0.804843
-0.522273
1.06435
0.289647
-0.0613844
-0.413086
0.690597
0.537572
0.457645
0.540576
0.644502
0.398394
-0.107214
0.248895
0.331616
-0.555833
-0.134724
0.20534
-0.879358
-0.427844
0.459411
0.501002
-0.21706
0.348695
0.727266
0.272584
0.803868
-0.452308
0.202391
0.478414
-0.0642886
1.24485
1.2932
-0.349175
0.103491
-0.31355
1.00834
0.177608
-0.307848
-0.222701
0.255392
-0.104218
1.20635
-0.0939688
-0.280301
1.12688
0.133666
0.297966
0.386307
-0.0589198
0.831816
0.73738
0.00175635
0.461703
0.410333
0.3545
-1.36298
-0.587067
-0.0217022
-1.04223
-0.17456
0.607702
1.1776
-1.36791
-0.869775
0.55478
1.86663
-0.344841
-0.124032
-0.663897
-0.00548
-0.850927
0.333709
-0.610565
0.152112
-0.52468
1.7052
-1.27745
0.737136
0.733234
0.227506
-0.96994
0.502874
0.826258
0.0984508
0.114347
1.72294
-0.0905934
-0.393937
-0.278041
0.37899
-0.0636518
0.15119
-0.352506
1.19497
-0.751222
2.36288
0.0796177
-0.273763
0.421378
-1.08008
0.190274
0.57572
0.693634
1.02953
-0.793972
0.10587
-0.343195
-0.465649
0.345565
1.13251
0.851791
-0.657456
0.106022
1.04836
-0.24792
0.68983
-1.12561
-0.256704
-1.05298
-0.676828
0.422126
0.765616
-0.0261082
-0.167883
-0.0979608
0.990262
0.021693
0.44005
-0.3289
-0.234579
0.311108
-0.0482365
0.147053
0.427605
0.773481
1.35799
-0.150829
0.794332
0.792499
1.62332
-0.481198
0.143859
0.396042
0.563115
0.455296
0.22162
-0.483306
-0.613785
-1.01633
-0.125197
-0.908953
-0.165882
-0.914014
-1.02372
-0.515807
-0.012563
-0.000157383
0.0537774
-0.0588492
-0.41494
-1.10788
-0.0230566
-0.120093
0.888011
1.59158
-0.838279
-0.163398
0.470621
0.0895949
0.801666
0.0685853
-0.0125119
-0.456814
0.0907325
0.427073
0.430665
-0.748832
-0.788986
-0.601226
0.349601
0.751804
-0.357387
0.273028
0.452484
0.533815
-0.0761035
0.528133
0.26783
0.212104
-0.30629
-0.152036
0.102608
-0.0187072
0.0380709
0.283703
0.476012
0.372854
0.434268
-0.54039
0.218728
-0.102114
-0.717188
1.20511
1.13704
0.226789
-1.67808
-1.03309
-1.17442
-0.818559
-0.975996
-0.02768
0.487738
-0.107848
-1.24045
0.0732025
-0.0453567
0.94809
-1.13112
-0.94908
-0.461323
0.747093
-0.736347
0.293268
0.777998
0.233744
-0.169277
0.763854
-0.263688
0.661673
0.136215
0.433305
0.121103
0.518137
-0.887107
-0.234913
-1.14583
-0.221334
-0.0534881
-0.542099
0.0316936
0.709554
0.661768
-0.380065
-0.638449
-0.452502
-1.05768
0.0261799
0.376046
-0.126461
0.928631
-0.511879
-0.0325945
0.207842
0.0174348
0.0011227
-0.77982
0.461018
0.873706
-0.396193
1.11258
-0.210728
0.430485
-1.79237
0.252912
0.26069
-1.74203
0.0925783
0.651787
-0.110906
0.345915
0.0146115
0.52688
0.250881
-0.084787
0.634558
0.0433441
0.178078
0.477658
-0.328504
-0.543748
0.105977
-0.321317
-0.0993058
1.01069
-0.369936
0.370314
-0.0224546
-0.0881706
0.229746
-0.518287
0.799653
-0.96471
0.0302953
-0.306021
0.167776
-0.946065
-0.239404
-1.35145
-0.530702
-0.00386054
-0.873849
0.00408885
-0.124589
-0.542538
0.238684
-0.144193
-0.507291
-0.561382
-0.385745
-0.220494
-0.1204
0.684974
0.350396
1.2124
0.528789
-0.955197
-0.112625
0.142496
-0.0492752
-0.4551
-0.0457553
-0.34202
0.0591074
0.734489
-0.301702
-1.19414
-0.186276
-0.489985
-0.0558278
-0.0978247
-0.0471422
0.843865
-0.0666607
0.68944
0.526384
0.530961
0.859813
-0.293754
0.205827
0.501931
-0.5774
-0.553331
-0.119233
-0.914405
-0.177893
0.130781
1.05227
0.681565
0.684843
-0.361441
0.0331584
-0.049988
-0.890966
-0.0604362
1.31092
-0.66903
0.0750629
0.178646
0.0553424
-0.201848
-0.988211
0.0900125
-0.582113
-0.961101
0.798984
0.211852
-0.577457
-0.194129
0.265609
0.146617
-0.762752
-0.236406
1.25968
-0.699426
0.576945
0.0737645
1.03334
0.799522
-0.613242
0.693927
-0.71422
-1.14492
-1.08801
0.329228
0.113214
-0.617759
-0.474141
-1.44116
-1.02199
0.471027
0.450251
-0.343555
-0.391
0.238876
0.393815
0.571136
0.109918
0.932511
-0.614829
-0.182712
0.979963
0.642722
0.655066
0.838817
-0.474035
-0.236997
0.244333
-0.048698
-0.600511
1.07695
0.196655
0.718297
0.1628
0.479178
-0.649404
0.243649
-0.130953
-1.03117
0.21646
0.13752
-0.270276
-0.334302
-0.7728
0.279683
0.757896
0.115423
-0.462082
-0.379818
-0.509162
-1.4033
0.0265133
0.831355
1.28618
-0.687234
-0.0624608
-0.0716152
-0.878531
-0.151097
-0.563684
-0.245832
-0.698762
0.540655
0.196677
0.567361
-0.457287
-0.0147482
0.337063
-0.63911
-0.833605
0.21597
-1.10348
0.346315
0.606152
-0.621475
0.376436
-0.685632
0.392296
-0.425644
-0.52613
-0.0178879
0.814556
0.545625
0.763439
0.19592
-0.597089
1.10756
-0.257023
0.494797
0.0988818
0.679486
-0.337874
-1.04102
-0.511767
0.628108
0.435436
-0.379368
0.540983
-0.642479
0.732668
0.359833
-0.790356
0.845837
0.370549
1.03841
-0.3921
0.3185
1.38743
0.351552
-0.178305
-0.508036
0.462053
1.0992
-0.690356
0.630605
0.223422
-0.215286
1.03536
0.99056
-1.02887
0.254299
0.946111
-0.0718545
0.172324
0.0388781
-0.498313
0.300568
0.246389
-1.14972
-0.0808561
-0.180178
-0.323393
-0.361915
0.152851
-0.982567
0.332336
-0.591112
-0.0257197
-0.911752
0.189672
0.651393
-0.431296
1.86002
-0.960802
-0.299596
0.385795
-0.41958
1.43965
-1.41892
0.750963
-1.10638
-1.05389
-0.238484
-0.186941
0.193266
-0.875547
-0.137151
1.43615
-0.457373
0.0252323
0.403439
0.0911722
-0.547599
-0.286459
-0.235083
-0.37441
-0.163597
-0.450658
0.93796
-0.00694734
0.798871
0.0555601
0.516772
-0.923813
0.0870923
-0.0403488
-0.0350405
-0.516847
0.389844
0.123772
0.992048
0.689588
-0.701595
-0.4002
-0.0995758
1.1561
0.643826
0.845883
-0.227105
0.546641
0.14909
-0.160016
0.285072
0.332031
0.630965
0.143794
0.953407
-0.200212
-0.474121
0.872743
0.507311
-0.704801
-0.993987
0.202917
1.2979
-0.288445
-0.469074
-0.359246
0.288692
0.965081
0.428342
0.138599
-0.0566748
0.366044
0.845488
0.116749
-0.828076
0.897015
-0.0747624
0.0532939
-0.419356
-0.97937
-0.408078
0.165834
0.139384
0.638358
-0.296249
-0.188812
0.446241
-0.339551
-0.540869
-0.575829
1.22583
-0.914227
0.19153
0.57921
1.06894
0.753693
-0.699871
0.908217
-0.3924
-0.224627
0.361569
-0.584786
-0.748777
1.10245
-0.141335
0.44479
0.026816
0.76299
-0.103933
0.145619
-0.094075
-0.368596
0.883776
0.234369
-0.657891
0.019311
0.6498
-0.40406
-0.864376
0.342812
-0.0494101
-0.197023
-0.216137
-0.443447
0.119753
-0.0755682
-1.02605
0.135132
1.10306
0.39933
-0.569538
0.356868
-0.0243338
1.74408
0.988707
0.758988
0.816946
0.226215
1.03848
-1.26853
0.880568
-1.00246
0.0768887
-0.549206
-0.27564
-0.453078
0.0858743
-0.82242
1.08672
-0.426408
0.313892
-0.488651
0.0889614
-0.465866
0.0650892
0.450428
-0.177045
-0.143085
-0.400751
0.578639
-0.0709209
-0.736572
-0.419728
-0.0995844
0.597784
0.913182
1.14992
0.0062678
-0.448273
0.199916
-0.452133
-0.143636
0.304296
0.575339
-0.662669
0.406988
-0.252911
-0.285576
1.15092
-0.564978
-0.679632
-0.0928594
0.73888
-0.940948
-0.144569
0.814352
-0.394793
-1.43635
0.0139485
1.47849
-0.39045
-0.490708
0.438329
-0.692189
-0.0163882
-0.770524
-0.248392
0.00927575
-0.466034
0.226524
0.471549
-0.785532
-0.225518
0.859322
-0.342478
-0.522522
-0.685391
-0.369094
-0.522537
-0.395157
-0.238539
0.702308
1.09438
-0.935076
1.07068
0.165326
-0.617718
-0.126049
1.06476
0.590687
0.431056
-0.402187
1.39941
-0.372392
0.627043
-0.571744
0.245744
-0.557982
-1.09477
0.72117
0.413066
0.856256
-0.0553064
-0.171125
0.593684
-0.112398
-0.711973
-0.0144172
0.84493
-0.499258
0.265805
0.338508
2.03066
-0.184126
1.13173
-0.108039
-0.557262
-0.842323
-0.56652
0.427733
-0.126523
-0.250106
0.581972
0.866745
1.80828
-0.0876779
0.242906
-0.100972
-0.351623
-0.0554332
1.08463
-0.423794
0.753233
-0.39159
-0.292439
-0.432012
1.06886
0.560961
-1.07946
-0.380107
-0.158765
0.134741
0.84544
-1.17173
0.0718927
-0.263485
-1.12979
-0.407206
0.378607
0.336996
-0.311303
0.173465
-0.227864
1.25935
0.373541
0.0241819
-0.170612
-0.0813196
-0.630094
0.910715
1.32599
-1.14182
0.479788
-0.739605
0.509815
-0.67768
-0.506137
0.390314
0.247643
0.127537
-0.288633
-0.569475
0.468391
0.185222
0.445869
-0.375709
-0.483454
0.0324376
1.05127
-0.0715449
0.749923
-0.672352
0.645483
-0.821347
0.744539
1.05556
0.724099
-0.0851003
-1.07849
0.437966
0.0144935
-0.544546
0.519912
0.923152
-0.0714872
0.0775508
-1.52337
0.449367
0.388772
-1.66289
-0.189005
-0.80453
1.2747
-0.172419
0.370672
-0.926662
-0.247849
-0.478166
1.02601
0.677749
0.420488
-0.711065
0.724018
0.969818
0.0660625
0.750225
-0.230508
0.331501
-0.0940012
1.26828
-0.0251038
-0.219674
-0.949727
0.0875637
-0.0295714
-0.185961
0.180674
-0.549934
0.924584
-1.58804
-0.300023
0.351971
0.203529
0.452829
0.235379
1.33987
-0.874165
0.546339
0.227542
0.44838
-0.341767
-0.402901
0.840704
0.624806
0.465424
0.920917
-0.706395
0.714208
-0.559758
0.374787
1.06945
-1.2066
-0.365257
-0.152644
0.590467
0.0586085
-0.688779
-0.0791894
0.911494
-0.319729
-0.47663
-0.23614
0.817581
0.787949
-0.728657
-0.213456
-0.0390511
-0.439586
0.938376
-0.0239863
0.610459
0.215745
0.0312811
1.20415
1.51597
-0.778751
0.174225
0.0696133
-0.104908
1.06293
0.330804
-0.810737
-1.30626
-0.00518318
1.19301
0.40676
0.453426
-1.03693
-0.48731
0.661868
1.35141
-0.0933866
0.972447
-0.15064
-0.512531
-0.281238
0.804865
-0.37979
0.0711867
-0.279897
0.169256
0.617783
0.0188419
0.49272
0.802702
-0.0670596
1.09612
0.66954
-0.143111
0.239496
0.889149
0.840681
-0.755438
0.283984
1.702
0.0928313
0.874151
-0.742347
0.490318
0.557472
-0.593194
0.050685
0.277823
0.874852
-0.0934468
0.967094
0.109391
-0.0482893
0.25415
0.652384
0.510203
-0.036498
0.984533
0.990454
1.0669
-0.489817
-0.740631
-0.158306
-0.112785
-0.320117
0.102528
-0.396043
-0.598096
0.417973
0.284495
0.262423
-0.781918
-0.0672701
0.639998
0.76389
-0.710791
0.232595
0.293069
0.787448
-0.376157
-0.183498
0.59945
0.773119
-0.0566221
-0.565598
0.464009
0.955982
-0.231138
0.235354
1.86495
0.107006
0.512662
-0.54674
-0.240552
-1.12184
0.210325
-1.59281
-0.857643
-0.159835
0.48373
1.05593
-0.249067
-0.503927
-0.110537
-0.762126
-0.932808
-0.0297204
0.308561
0.998193
0.0533648
-0.424898
0.194806
-0.167249
0.409558
-0.40539
-0.471347
-0.286402
0.499697
0.935203
0.624514
-1.10026
-1.05696
0.532749
-0.356539
-0.6606
0.130394
0.0742787
-0.357846
-0.928611
0.174288
-0.985977
0.423595
-0.270194
0.48992
0.130721
0.046978
0.545778
0.394169
-0.584114
-0.601422
1.3515
0.177907
-0.315179
0.598168
-0.0992381
0.938336
0.512721
0.472652
1.20945
-0.164409
-0.134176
-0.291738
0.190332
-0.562814
-2.48055
0.129608
-0.235217
-0.556735
0.273367
0.210363
1.15925
-0.0497383
-0.812449
-0.936656
-0.21303
-0.0934459
0.892172
-1.12067
-0.375358
0.866976
-0.199348
-0.354666
-0.102735
1.12088
0.527474
-0.537039
-0.404369
0.474201
1.18533
-0.412137
0.344488
0.400479
-0.780993
0.103478
-0.26402
0.941787
0.176039
-0.606039
-1.21317
-0.394957
-0.0149601
-0.793548
0.736267
-0.497301
-0.195411
-0.290544
-0.150475
0.739687
0.272727
-0.350145
-0.427365
0.651693
0.162961
0.363088
-0.955994
0.556166
0.30112
0.501514
1.08053
-1.10671
0.155354
-0.23564
0.199293
-0.19214
-1.24148
-0.307253
0.6758
0.277664
0.310588
0.735666
-0.137792
-0.268628
-0.569969
-0.4129
-0.602295
-0.227255
0.961751
-0.341986
0.51494
0.450474
0.931448
0.808086
-0.760901
0.622101
0.272617
-0.798211
0.213176
-0.153323
0.052742
0.0941627
-0.236492
0.694978
-0.384787
-0.163992
0.241083
-1.1539
-0.11809
-0.501063
-0.0423236
0.840099
0.171074
-1.58034
0.031038
-0.113749
-0.10806
0.34394
0.340601
1.03342
0.129754
0.007025
0.227776
-0.105021
0.451358
-0.218504
-0.555104
0.669907
-1.44033
0.378782
-0.161754
-0.830216
0.264376
-1.01873
-0.384624
-0.58997
0.0632464
0.0539863
0.187761
0.107002
0.0766995
0.891581
-0.0168556
-0.248996
0.262594
0.209623
1.14553
-0.553658
1.18651
1.10391
0.361214
0.290945
-0.589773
0.07258
-0.182161
0.356443
-0.354318
0.392792
-0.482296
0.197692
0.795957
-0.716197
0.156575
0.0170759
0.556583
-0.905791
-0.960054
-0.0911894
0.643242
0.481564
0.835269
0.417545
0.336879
-0.0828184
0.242307
0.100152
-1.16883
-0.581314
-0.0611492
0.495932
0.504572
-0.554904
-0.806203
0.50447
0.856446
0.176817
-0.225165
0.362536
0.00471272
-0.385392
0.107361
-0.479427
-0.971456
-0.337671
-0.819645
0.0543255
0.111012
-0.80152
-0.348583
0.604878
0.728025
0.521234
0.429647
-0.101647
-0.596743
-0.77798
-0.898268
0.964952
0.528639
1.3029
-0.30111
-0.00305072
-0.462601
-1.32593
-0.357042
0.765227
0.172626
-0.527686
-0.445664
-0.49862
-0.269848
-0.501488
-0.442018
0.515533
0.0813806
0.0217891
0.953894
0.560125
-0.377547
0.444691
-0.669189
-0.188438
-0.0988578
-0.798524
0.621145
-0.148369
-0.743531
0.501239
-0.586161
0.072943
0.794928
0.557913
-0.531712
-0.171162
1.23188
0.740849
-0.135248
-0.667757
0.345613
0.931244
0.0198596
-0.224209
-0.0882475
0.394198
-0.248119
-0.452211
0.0981086
-0.904977
0.374307
-0.305675
-0.714344
-0.598572
-0.424359
-1.09073
-0.287851
-0.97079
0.944891
0.355319
-0.102849
0.988457
0.201747
-0.392896
1.25851
-0.208389
-0.190113
0.455122
0.173279
-0.0498432
0.414885
0.431158
0.384629
-0.629656
-0.494808
-0.889788
-0.834
-0.305594
-0.218344
0.223011
-0.00850444
0.47655
0.475789
-0.17359
0.874864
-1.05106
-0.794112
-0.541085
-0.282241
1.22186
0.149037
0.386113
0.595896
-0.574014
1.05754
0.359858
-0.0222007
1.50283
-0.777169
-0.553786
-0.434498
-0.619693
-0.364324
0.0925607
2.36428
-0.684798
0.312706
-0.937399
-0.438312
0.0916602
-0.0900005
-0.67411
-0.802029
-0.344169
0.250622
-0.463105
0.500119
-0.183654
-0.434046
0.62329
-0.359732
-0.133124
-0.655604
-0.84928
-0.549898
-1.13114
-0.0867909
-0.0331319
0.58532
0.183939
0.157228
-0.467089
0.169945
1.04463
0.619521
-0.785603
0.798073
0.449371
0.387722
1.292
-0.200474
-0.452834
0.668786
-0.3684
0.3026
-0.650859
-0.00582743
-0.651604
0.0618727
-0.0116765
-1.25214
0.555459
-0.933931
-0.452486
-0.160828
0.0133563
1.23324
0.367471
-0.316216
-0.00278968
-0.766661
0.649968
0.483552
0.964247
-0.198736
0.958256
-0.559222
1.00534
0.779057
1.0979
-0.998815
0.452602
0.370435
-0.352636
-0.335884
-0.715296
-0.16575
-0.0967665
-0.0222905
0.216706
-0.128239
-1.02547
-0.995388
0.647106
0.215019
-1.4168
-0.294817
-0.270219
0.516441
-0.149637
1.04311
0.356816
0.160491
-0.142022
-0.238996
0.508645
-0.216845
-1.34433
0.486225
0.733575
-0.527415
-0.667512
0.0431092
0.403828
0.173135
-0.629767
0.62402
0.651958
0.979345
0.438437
-0.638438
0.156436
0.0402514
0.0510454
-0.616871
-1.07828
-0.602222
0.0309443
-0.473865
0.126331
0.0715465
0.0134519
1.42736
1.01278
-0.349743
1.29212
0.386437
0.36133
-0.2346
0.249744
-0.406229
0.284316
0.831651
0.433573
-0.691517
1.29941
0.0105746
0.764129
-0.22519
0.127761
0.058052
0.354733
-0.0472769
0.813009
-0.849424
-0.469656
-0.565613
0.669589
1.62611
-0.337027
0.690084
0.170134
1.32867
1.64488
0.642651
0.917618
0.393929
-0.338002
-1.24464
0.442468
0.733817
-0.260706
0.504665
0.613346
0.804997
-0.671131
-0.324488
0.514609
-0.319557
-0.362651
-0.30177
-0.54264
-0.212868
0.4465
-0.0133618
0.232076
-0.710343
-0.303387
0.706552
-0.667985
-0.94168
0.385687
2.33044
0.690738
-0.393494
0.301476
-0.472785
0.430818
-0.571508
0.516165
-0.531226
0.64656
-0.622608
0.628879
-0.824044
0.142528
0.977549
0.751736
0.536303
-0.213033
0.516146
-0.229102
-0.474225
-0.184312
-1.43683
0.218926
0.761229
0.869852
0.613454
-0.475816
0.805921
-0.339406
2.04508
0.288671
0.573333
-0.77339
-0.658329
-0.430642
-0.476097
-0.133858
0.748299
-0.838411
-0.0459625
0.959689
-0.932288
1.22983
-0.0987412
1.0609
-0.647168
0.311634
0.626297
0.0711603
-0.596048
-0.511252
0.214732
-1.17164
-0.552081
-0.787855
0.531958
0.588903
-0.715586
-0.74148
0.0438625
1.32223
1.30698
0.947985
0.61994
-0.804881
0.872117
-0.035591
-0.378934
-0.173416
0.797005
-0.0233422
-0.121597
-0.34081
-1.98974
0.0908852
0.134047
0.257802
0.76365
-0.0197435
0.125521
0.872679
-0.785929
-0.0466285
-0.641239
-0.390658
-0.509962
-0.363488
-0.806734
0.175456
1.16641
0.195171
-0.0314272
0.379248
-0.818433
-0.187739
-0.106797
-0.181056
-0.850701
0.303048
-0.195411
0.275506
0.195608
0.233062
-1.73925
0.456255
-0.017987
-0.0488054
0.136454
1.12268
-0.516771
0.463213
-1.12974
-1.16429
0.530827
-0.242536
-0.619252
-0.244409
0.29052
0.575886
0.674562
1.67922
-0.255078
-0.123725
0.856
0.362126
0.25372
0.0854392
1.24919
0.353559
-0.336133
0.541543
0.141743
0.877424
-0.572745
0.176401
0.770872
-0.511109
-0.272986
0.410097
0.0363046
0.818571
-0.549782
-0.924919
0.468328
0.106029
0.0358389
1.13956
-0.22195
0.28948
1.27378
1.93169
0.519673
-1.11216
0.509231
-0.517403
0.401318
-0.120228
-0.891026
-0.743101
0.981648
1.83547
-0.0917686
-0.0450738
-1.60256
0.265402
0.319718
-0.196663
-0.0845184
0.808587
0.436793
0.810455
-0.51544
-0.683223
-0.0279101
-0.741136
0.291796
0.0967451
0.263655
-0.730372
1.5595
0.995034
-0.0488904
-0.78544
1.03426
-1.01679
0.758434
0.394293
-0.659618
-0.452639
-0.245318
1.82907
0.0873825
0.0840352
-1.42683
0.685789
-0.57874
1.64933
-0.538353
1.04606
-0.665976
-0.0882864
0.235158
-0.472941
-0.0162309
0.394932
-0.241239
-0.819001
-0.669961
0.356646
2.33284
1.41109
0.16951
0.131846
0.0970985
-0.163727
0.827371
0.763181
-0.541324
0.55992
0.852999
1.91838
0.022474
0.911308
1.09692
0.136907
-0.87968
1.01932
0.0916696
-0.679699
0.416816
-0.252143
-1.51533
-0.121295
-0.110881
-0.519709
0.201792
-0.0988814
0.0070901
0.641917
1.42473
1.19118
-0.510407
-0.343303
-0.390655
-0.855628
-0.248801
0.0768373
-0.360358
-0.175101
0.133746
1.08267
-0.0419055
-0.16452
-1.38096
-0.418613
-0.472299
-0.135136
-0.80323
0.0501058
0.863089
-1.24056
0.600226
0.314104
0.0354818
-0.958615
0.463301
-0.438198
0.691238
0.00876038
1.30999
0.842781
-0.487599
-0.62135
-0.481886
-1.00944
0.513716
0.578423
-1.02864
-0.106375
-0.559481
0.551055
0.395055
0.0243954
-0.986914
0.0270162
-0.333024
-0.367507
-0.159754
0.033495
0.446235
0.242717
0.598328
-0.785828
-0.569182
0.409572
-0.198075
0.447711
-0.724038
1.03202
1.73215
1.11772
-1.14976
-0.686796
-0.296069
-0.216086
-0.781058
1.20998
-0.949764
-0.708327
0.531428
-0.812124
-0.606056
0.106029
-0.187097
-0.0619617
0.00865406
-0.986011
-0.141446
0.0888436
0.43703
-0.43312
0.162332
0.309744
0.539821
-0.609716
0.462744
-0.0364971
0.616681
0.49752
0.607674
1.86339
0.227495
0.119139
0.453398
-0.119707
-0.333755
0.619319
-0.199099
-0.990409
-1.02298
0.0845785
0.707224
-0.657097
-0.532643
0.29906
-0.0137224
0.0271381
-0.352308
-0.0205186
1.13625
-0.281887
-0.341516
0.721692
0.489388
1.71401
-0.942878
-0.0829211
1.1295
0.0362147
0.761618
1.4147
0.0885103
-0.926456
-1.60281
-0.21015
-0.8356
-0.102579
-0.347344
-0.320048
0.394859
-0.298797
0.27705
-0.73325
-0.220193
0.24837
0.285603
-1.06062
-0.323154
0.132423
0.619526
-0.941462
0.597124
0.257923
0.740382
-1.60453
0.807758
0.531121
0.480658
-0.336163
0.129574
0.00895604
0.324591
0.320255
-0.949657
-0.789589
-0.445303
-0.101664
0.361034
-1.16955
0.903079
0.821006
0.193034
0.237689
-0.203213
0.588045
0.379754
0.166311
-0.30119
-0.37924
0.476837
-0.886268
-0.540825
-0.719683
-0.0705936
0.502975
-1.45762
-0.0816544
-0.745068
-0.993971
0.283058
-0.767067
0.319414
0.166241
-0.459676
-1.20307
-0.817084
0.0493589
-0.173859
-0.854454
0.158897
-1.09718
0.138125
-0.429233
-1.13381
0.673697
0.142261
-0.302117
1.10608
-0.0494559
0.911655
0.848846
-0.408349
0.0938567
-0.434774
-0.154479
-0.565056
-0.093948
0.350697
0.0935838
1.04099
-0.259675
0.216757
-0.711621
-0.165275
1.05636
-0.832319
-0.0968985
-0.0878355
0.676167
0.145509
0.250436
0.809214
-0.10318
-0.714785
0.510206
1.16068
-0.599528
1.14222
0.000970862
-0.299951
0.694105
-0.176391
0.0236449
0.256125
-0.788335
0.294817
-0.162532
-2.65116
1.06918
0.294442
0.0897484
-0.378633
-0.827425
-0.0661798
0.0434691
-0.209821
0.628517
0.203738
0.908912
-0.33432
-0.51466
-0.499955
0.646497
-0.829625
0.108631
0.27066
-0.17425
0.894642
0.0102429
0.386142
-0.215689
-0.645676
0.39215
-0.0171204
0.284049
-0.323498
0.50627
-1.19911
-0.441223
0.60846
-0.360245
0.14864
-1.93429
0.926376
-0.176627
-0.600412
0.0671169
0.480031
-0.199247
-0.333317
-0.174929
0.775086
-0.35519
-0.452133
0.705848
-0.373877
0.0632649
0.620771
-1.24968
-0.299358
-0.43176
-0.169455
0.20238
-0.271385
0.828731
-0.850255
-0.381907
0.240242
0.601366
0.360973
-0.368934
0.122561
-0.865487
0.3608
0.131349
0.618755
-0.382674
-0.690849
1.07521
-0.373147
0.927395
0.256924
1.31005
-0.0826735
-0.256396
0.169141
0.010197
1.355
0.339325
-0.972522
0.898991
-0.206961
0.679656
0.312743
0.398374
0.414422
-0.394439
0.833944
0.328865
-0.0519046
-0.527652
-0.0108798
0.410999
-0.258803
-0.967414
0.376325
-0.653118
-0.305258
0.539345
-0.146294
-0.34856
0.546436
-0.669806
-0.307546
1.43071
0.106976
-0.0152873
1.07978
0.535677
-0.302351
-0.0849208
-0.231926
-1.20102
0.109038
0.357763
-0.0510131
1.10677
-0.456181
-0.659595
-0.429521
-0.0316821
0.717283
-0.502467
-0.435581
-0.108925
-0.62207
1.17124
0.868131
0.00734552
0.874516
0.593885
-0.71017
0.371998
-0.131249
-1.01019
-1.11206
0.116587
-0.190086
0.662208
-0.503805
-0.497912
-0.394464
1.70218
-1.17282
0.987392
-0.56436
1.11807
0.182718
-0.434569
0.602189
-1.14894
0.314841
-1.24295
-0.655954
1.01051
-0.648914
0.0510938
0.812532
-0.000673351
0.759108
-0.139677
0.962173
-1.22181
-0.0857233
0.657747
0.312446
1.94334
-0.191549
0.982689
-0.668478
-1.73988
1.01739
-0.500219
0.82027
1.1474
-0.790899
0.204364
-0.361881
0.609445
0.0191743
-1.28569
0.39884
-1.01112
-1.3798
1.22349
0.350595
-0.769157
-0.376975
0.97717
-0.694208
-0.517718
0.175172
-0.835956
0.229886
-0.632653
-0.349787
-1.2921
-0.320491
1.06737
0.106563
0.560707
-0.756503
-0.704358
1.06167
0.553944
-0.640084
-0.530581
-0.162845
0.406391
0.618784
-0.00496506
-0.580129
-1.02281
-0.388874
-0.430391
-0.762443
0.0663817
0.634612
0.539568
0.0131929
1.03805
-0.463643
-0.342688
0.279562
0.415396
-0.364039
-0.842382
0.263943
0.114265
-0.708119
-0.398448
0.0171798
0.275534
-0.475538
0.600916
0.0849872
0.357362
-0.230842
0.4844
1.02535
0.9152
-0.0534629
1.2136
0.672815
0.0906662
0.785401
1.11424
0.250547
-1.15668
0.0784131
0.221731
-0.493145
0.307524
-0.878627
-0.319573
-0.0483924
-0.765726
-0.426381
0.0311476
-0.8994
1.37258
0.735817
-0.228253
-0.370006
0.919367
1.44186
0.155286
0.328951
-0.297959
1.54911
-0.147802
-0.0672206
-0.471969
-0.780672
-1.05838
0.304057
-0.292983
-0.353451
0.606043
-0.739483
-0.876533
0.572035
0.226706
-0.48361
0.0254745
0.238567
-1.20593
0.225678
-0.405355
-0.754194
-0.440257
-0.619719
-1.32812
0.342832
0.213603
-0.0713077
-0.645003
-0.480771
0.956617
0.994242
-0.523481
0.824526
-0.910897
0.0583564
-1.05167
0.367302
1.18838
-1.66935
-1.21805
-0.450838
0.808256
0.42879
-0.569083
-0.00657658
-0.753738
0.454467
0.59279
0.612861
-0.00568991
-0.551884
0.820058
-1.39086
-0.761539
0.100995
0.816678
-0.166813
-0.360879
-0.160225
0.0176307
0.580437
-0.904272
0.953886
1.37871
0.837269
0.138472
0.271858
0.522296
-0.861546
-0.0265707
-0.357777
0.278648
0.306786
-0.535896
-1.15152
0.459576
0.00236528
-0.245296
-0.380267
0.176744
-0.122165
-0.135436
-0.429701
-0.438862
-0.0026966
-0.137697
0.78612
-0.302294
0.0455414
0.277777
1.11609
0.185348
1.26918
1.36353
0.347485
0.288343
0.622485
0.339461
-1.38768
0.234862
0.629043
0.423128
0.3227
0.269553
-0.804858
0.644674
0.0801429
0.0629609
1.41939
-1.81016
-0.486182
0.701948
-0.029873
-1.337
0.159239
0.127466
-0.610368
-0.977303
0.784823
-0.0307405
1.05106
1.10263
0.792956
-0.461159
0.864933
0.480277
0.106981
-0.73794
0.684947
-0.593902
0.288425
0.380209
-0.595075
0.953192
-0.599861
0.144737
0.0526074
-0.531168
0.628481
-0.484242
-0.552938
-0.704688
0.346324
0.696705
-0.373366
0.424393
-0.413981
0.750187
-0.418873
0.105291
0.65591
0.710091
-0.147467
0.188186
0.781885
-0.974083
-1.27985
0.46077
-1.81331
-0.355632
-0.322638
0.168536
-0.562607
0.230458
-0.998728
0.673479
0.644536
-0.493649
0.218883
-0.984274
-1.95503
0.488188
-0.50536
-0.373539
-0.0260392
0.697462
-0.161441
0.185426
0.0412323
0.176263
1.82203
0.205816
1.00708
0.479558
-0.0929975
0.274149
-0.721227
-0.179244
-0.827988
-0.382226
-0.148829
0.155628
0.877941
-0.132379
-0.925817
0.28531
-0.239598
0.45629
0.305971
-0.541769
-0.103453
-0.0232768
0.257934
-0.116917
-0.150759
0.411325
0.222853
0.363654
-0.678196
-0.0275253
2.59545
1.18858
0.191287
0.431114
1.22441
-1.19461
0.866817
0.54727
-0.744883
-0.173991
-0.171991
0.871974
0.890657
0.515207
-0.353597
0.0112052
0.129322
0.557983
-0.0988708
-1.44007
-0.792211
0.337831
-0.832177
0.291196
0.0229195
0.172741
-0.761583
-0.201681
-0.96494
0.81457
1.27404
0.122252
0.344339
-0.221108
-0.377084
-0.600393
-0.762985
0.433098
-0.627098
1.15241
-0.753754
0.924147
-0.0278771
0.800113
-2.24357
0.239152
-0.357664
0.0608827
-0.644197
-0.276512
0.161464
-0.618401
-0.19654
-1.09298
-0.292553
-0.744193
0.0546533
1.02327
-0.651977
-0.433855
1.82478
0.894904
-0.520326
0.153333
0.466501
-0.744307
0.139854
0.549495
-0.563165
0.361325
-1.07552
1.16884
0.0141516
-0.274432
0.376806
0.0329376
0.45812
0.247808
-0.736402
-0.993676
0.425632
0.396214
-0.72177
-0.0476106
0.224221
-0.614608
-0.839461
0.462545
0.0413407
-0.335566
1.50859
-0.360012
0.599188
-0.0368744
1.0645
-0.55549
-1.20025
0.82159
-1.10747
-0.635336
0.14648
1.28361
0.173532
0.0565767
-0.391816
0.53891
0.0622488
1.20029
0.352407
0.327065
0.428192
-0.327064
0.160491
-0.176776
1.00072
-0.466325
-0.63209
-0.221375
-0.260981
-0.0907153
0.0101614
0.82868
-0.197751
0.571106
0.672846
-0.795658
0.522339
0.072828
-0.181371
-0.474069
-0.0850198
1.39501
0.107811
0.729704
0.0543329
0.183013
0.21234
-0.391159
0.219356
0.660493
0.942898
0.10919
-0.600495
0.322094
-0.00527615
-0.594352
-0.572738
-0.379033
0.162364
-0.78602
0.316446
0.49067
0.822402
0.114751
0.939798
0.55966
0.407535
0.669804
0.078973
0.0252763
0.122586
0.679367
0.739109
0.389298
-0.305059
-0.166223
-0.460182
0.029086
0.371647
-0.0119646
0.412496
0.963121
-0.596201
0.186535
0.119379
-1.19644
-0.972945
-0.729871
0.159032
1.25963
0.892271
1.35908
0.535466
-0.330735
-0.161943
-0.464714
-1.4311
0.988686
-0.467928
-0.836876
-0.798811
-0.963007
0.831792
-0.265715
-0.863738
0.821316
0.481852
-0.535503
0.526349
-0.131868
-0.454601
-0.172783
0.226612
-0.869234
-0.260828
-0.588844
-0.908288
-0.713604
0.886302
-1.49355
0.426968
0.606487
-1.26467
0.482346
0.497279
-1.22629
-1.47739
0.460653
-1.10585
-0.573682
-0.495845
0.163521
-0.422018
0.287213
-0.135568
0.0466428
0.205968
-0.371979
0.395527
0.64117
0.0544041
-0.777001
-0.0138488
-0.271112
-0.0896589
-0.687166
0.638141
0.199259
-0.747945
0.50715
-0.104538
1.29747
0.0700624
-0.184016
-0.55684
-0.0137394
-1.16489
0.751876
-1.33204
-0.319814
-0.0749503
-1.00592
-0.671617
-0.463407
-0.476554
0.374103
-0.111004
0.357899
0.30414
0.269849
0.153346
0.52981
-0.0952154
0.621066
-0.573114
0.183875
0.942193
-0.00773323
0.288837
-0.237388
0.763694
0.0591048
0.831469
0.501109
-0.390513
0.245546
-1.9787
-0.324924
-1.01163
0.266784
0.398098
-1.19014
-0.802966
0.00793703
-0.665172
0.898769
-0.660408
-0.616163
0.85219
0.483212
-0.502467
0.73897
1.01738
-0.551353
0.3551
0.0333182
0.544979
0.959901
0.639693
-0.498159
0.815945
0.186424
0.690018
-0.335082
0.586591
-0.323226
-0.670953
0.628899
-0.488789
0.0540155
-0.804363
-0.72649
1.04644
-0.0471529
0.566214
0.304797
0.699915
-0.682624
-0.211203
0.272879
0.0299977
-1.62319
0.353159
0.120474
0.447816
0.59516
-1.31721
0.0994557
-1.63624
0.00719811
0.507466
-0.338116
-0.159857
-0.558294
-0.447585
-0.597253
-0.0647037
0.385632
-0.419513
0.464539
0.959187
-0.210237
-0.254351
0.104472
0.492981
0.201703
-0.294552
-0.432392
0.0848364
-0.188974
0.211677
0.159022
-1.33156
-0.112073
-0.139947
0.413089
0.68038
0.373384
-2.58197
-0.373862
0.124284
0.290249
-0.0129635
-0.036441
-0.193109
-1.322
-0.470215
0.0416135
-0.441114
-0.0419778
-0.399682
-0.895586
0.08376
0.483201
-0.540075
0.82366
-0.0655314
-0.318628
-0.521415
-0.0249429
0.128041
-0.0360898
0.377145
-0.654879
0.182371
-0.623836
0.2861
-0.501886
-0.968342
0.14249
0.364675
-0.50778
0.00691456
-0.117969
-0.523108
0.0545517
-0.760232
0.210789
0.0382574
-0.0266204
-0.0922147
0.934369
0.20969
-1.34422
-0.143086
1.30841
0.836752
0.260512
0.182604
1.07394
-0.346369
1.41546
-0.815673
0.99075
1.32531
0.584721
-0.332268
0.78391
-0.297176
-0.155522
0.268275
-0.445503
0.462332
-0.877529
0.543363
0.210627
-0.145731
0.353237
0.657852
0.102359
0.518146
-0.161633
1.91991
-0.617675
-0.327043
1.12736
1.12557
0.231101
0.339608
-0.567554
-1.27769
0.162638
-0.382697
0.106423
-0.0998876
0.209866
-0.498103
0.892246
-0.228809
-0.105347
0.767701
-1.22341
-0.444312
-0.178247
-0.288626
-0.497706
-0.324959
-0.471989
0.407797
1.55435
1.13199
-0.0497639
0.694966
-1.3269
0.515472
0.610743
0.260867
0.587918
0.0134268
-0.858271
-1.33467
-0.013206
-0.207274
-0.359624
0.147547
-0.461439
-0.604055
0.569408
-0.510621
0.614433
-0.266263
-0.466227
0.053612
0.127098
-0.146134
-0.353671
-0.788987
0.0122885
-0.719432
0.119323
-0.381674
-0.129411
1.02737
-0.674229
-0.255957
0.732617
-0.0285891
0.789917
-0.315436
0.0853867
0.673605
-1.08208
1.11856
0.212689
-0.530479
0.13621
0.701264
-0.218049
-0.300753
0.878292
0.0198059
-0.27084
-1.26917
-0.371919
0.39154
-1.00629
1.04157
-0.230456
0.671378
0.280742
-0.787632
0.625737
0.920407
-0.502479
0.324139
-0.553344
0.210465
1.63692
-0.204254
0.091366
-0.150275
-0.142579
1.90969
-0.70125
0.0514437
1.00505
-1.0797
-0.212426
0.419285
0.346989
0.230929
-0.0901235
0.65547
-1.14043
0.0389209
-0.305188
-0.891958
-0.848683
-0.893131
0.192431
-0.18982
-1.20275
0.363763
0.463244
-0.730262
0.302783
-0.424381
0.0507411
0.144619
0.660252
0.183877
0.645802
-0.287294
-0.335975
-0.433751
-0.253181
0.840749
-0.554328
0.258095
0.576768
0.320753
-0.0849154
1.11273
-0.719288
0.928001
0.733582
0.985774
0.840204
0.0536361
-0.476784
-0.865969
-0.872975
0.567718
-0.266994
-0.0390526
-0.991192
-0.667586
-0.0484431
0.817151
-0.894772
-0.784331
-1.16183
-1.2318
-0.421015
-0.923578
-1.01867
-0.382535
-1.2832
-0.0749164
0.181204
1.04525
0.424766
0.390163
0.846437
-0.017527
-0.00810673
0.0938079
-0.0831907
-0.888699
-0.761701
0.0366265
0.328949
0.425294
0.705842
-0.406618
0.354467
-0.574406
0.338635
0.230699
-0.397366
0.781122
0.572351
-0.3625
-0.615482
0.803449
0.674455
1.16309
-0.0322141
-0.752828
0.102715
-0.15278
-0.189916
1.13934
-0.65668
0.143369
0.15836
0.692675
1.32651
-0.266392
0.342823
0.443191
0.699963
0.326919
0.630008
-0.392433
0.216226
0.689729
-0.0497121
-0.463015
-0.591689
-0.643058
-0.425161
0.701505
-1.20006
0.690351
0.506211
0.835979
0.613191
0.408358
0.141419
0.357497
-0.306331
0.773992
0.334886
1.05762
-0.474234
-0.275429
0.0387795
-0.24499
-0.853898
0.437221
0.689199
0.16008
-0.39009
-0.755429
0.14864
-0.030388
1.54111
0.295805
0.219249
-0.196939
0.160136
-0.527994
-1.31009
0.777165
1.50965
0.515393
-0.697703
0.249147
0.609569
0.0797285
0.207296
-0.050912
-0.302332
0.221892
-0.128848
-0.96327
0.305294
-0.350719
-0.225669
-0.191799
0.647325
0.757895
-0.0641113
0.710874
1.12458
0.117357
0.925617
0.493367
0.918253
0.452295
-0.224853
0.733299
-1.57269
0.32829
0.217208
0.319641
-0.325129
0.044532
0.870652
1.40165
0.118721
0.108322
0.667848
0.826132
-0.00858205
0.122324
0.399842
-0.57074
0.895837
-0.168236
0.270355
0.0937415
0.670626
-0.657458
0.00679915
0.857237
0.147443
0.944508
0.238349
0.774802
-0.374243
0.122228
-1.03012
0.869822
0.616711
-0.0837099
0.471852
-0.639803
-0.404161
-0.571366
0.396859
0.0373694
0.3065
1.68726
0.169419
-1.1062
-0.211846
-0.327535
-0.513925
1.06589
0.828412
0.697061
-1.38852
-0.845848
1.47008
0.594344
-0.0233786
0.330428
-0.253626
-1.06704
-0.0900474
-0.803617
0.545569
0.516996
-0.149227
-0.340529
-0.890111
-0.254139
-0.344431
-0.160208
0.424529
-0.391012
0.260177
0.816275
-0.357378
0.157859
0.312447
-0.373926
1.05948
-0.107538
0.40698
-0.346645
0.444108
0.290343
0.354995
0.70269
0.267351
0.189677
0.52052
-0.8438
-0.783322
0.521055
-0.406201
0.0142647
0.220172
-0.736737
-0.011026
-0.311163
-0.179974
0.173264
-0.443153
0.35737
1.27029
0.176034
0.27581
0.0935344
-0.228706
-0.217253
0.551047
-0.877876
-0.203151
0.843703
0.333458
-0.884241
0.665892
0.287171
0.342138
-0.149141
-0.630659
-0.912369
-0.412074
-0.832928
0.00784044
-0.755554
0.627678
-0.430307
0.18858
-0.739517
-0.674605
0.662084
0.622169
0.181088
0.0784688
1.51225
-0.211657
0.440921
0.366941
-1.04552
-0.342574
0.280991
0.446528
-0.00410396
-0.0784867
0.260086
1.09901
0.169905
0.260644
0.444188
-0.393953
-0.712083
-0.19941
-0.156524
-0.68713
0.146822
0.170011
-0.700312
1.08388
0.324609
-0.38487
0.423473
0.5408
0.0246285
-0.0298183
0.508914
-0.390992
0.23154
-0.153206
-1.45661
-0.63042
0.746181
1.00441
0.202893
0.457051
0.111727
-0.502015
-0.117522
0.201932
0.431331
0.51923
1.06965
0.378194
-0.64441
-0.178098
-0.32806
-0.688188
-1.92426
-0.0366651
-0.721783
-0.00359363
1.22759
-0.545151
0.264969
0.56423
0.593949
-0.11609
0.868942
0.270429
-1.80774
